<?xml version="1.0"?>
<MethodSetup Method="BDT::BDT">
  <GeneralInfo>
    <Info name="TMVA Release" value="4.2.1 [262657]"/>
    <Info name="ROOT Release" value="6.20/04 [398340]"/>
    <Info name="Creator" value="lorena"/>
    <Info name="Date" value="Wed Jul  1 16:18:22 2020"/>
    <Info name="Host" value="Linux lorena 5.3.0-61-generic #55~18.04.1-Ubuntu SMP Mon Jun 22 16:40:20 UTC 2020 x86_64 x86_64 x86_64 GNU/Linux"/>
    <Info name="Dir" value="/home/lorena/Analise"/>
    <Info name="Training events" value="2487"/>
    <Info name="TrainingTime" value="1.46520686e+00"/>
    <Info name="AnalysisType" value="Classification"/>
  </GeneralInfo>
  <Options>
    <Option name="V" modified="Yes">False</Option>
    <Option name="VerbosityLevel" modified="No">Default</Option>
    <Option name="VarTransform" modified="No">None</Option>
    <Option name="H" modified="No">False</Option>
    <Option name="CreateMVAPdfs" modified="No">False</Option>
    <Option name="IgnoreNegWeightsInTraining" modified="No">False</Option>
    <Option name="NTrees" modified="Yes">500</Option>
    <Option name="MaxDepth" modified="Yes">9</Option>
    <Option name="MinNodeSize" modified="Yes">2.5%</Option>
    <Option name="nCuts" modified="Yes">20</Option>
    <Option name="BoostType" modified="Yes">AdaBoost</Option>
    <Option name="AdaBoostR2Loss" modified="No">quadratic</Option>
    <Option name="UseBaggedBoost" modified="Yes">True</Option>
    <Option name="Shrinkage" modified="No">1.000000e+00</Option>
    <Option name="AdaBoostBeta" modified="Yes">5.000000e-01</Option>
    <Option name="UseRandomisedTrees" modified="No">False</Option>
    <Option name="UseNvars" modified="No">4</Option>
    <Option name="UsePoissonNvars" modified="No">True</Option>
    <Option name="BaggedSampleFraction" modified="Yes">5.000000e-01</Option>
    <Option name="UseYesNoLeaf" modified="No">True</Option>
    <Option name="NegWeightTreatment" modified="No">inverseboostnegweights</Option>
    <Option name="Css" modified="No">1.000000e+00</Option>
    <Option name="Cts_sb" modified="No">1.000000e+00</Option>
    <Option name="Ctb_ss" modified="No">1.000000e+00</Option>
    <Option name="Cbb" modified="No">1.000000e+00</Option>
    <Option name="NodePurityLimit" modified="No">5.000000e-01</Option>
    <Option name="SeparationType" modified="Yes">giniindex</Option>
    <Option name="RegressionLossFunctionBDTG" modified="No">huber</Option>
    <Option name="HuberQuantile" modified="No">7.000000e-01</Option>
    <Option name="DoBoostMonitor" modified="No">False</Option>
    <Option name="UseFisherCuts" modified="No">False</Option>
    <Option name="MinLinCorrForFisher" modified="No">8.000000e-01</Option>
    <Option name="UseExclusiveVars" modified="No">False</Option>
    <Option name="DoPreselection" modified="No">False</Option>
    <Option name="SigToBkgFraction" modified="No">1.000000e+00</Option>
    <Option name="PruneMethod" modified="No">nopruning</Option>
    <Option name="PruneStrength" modified="No">0.000000e+00</Option>
    <Option name="PruningValFraction" modified="No">5.000000e-01</Option>
    <Option name="SkipNormalization" modified="No">False</Option>
    <Option name="nEventsMin" modified="No">0</Option>
    <Option name="UseBaggedGrad" modified="No">False</Option>
    <Option name="GradBaggingFraction" modified="No">5.000000e-01</Option>
    <Option name="UseNTrainEvents" modified="No">0</Option>
    <Option name="NNodesMax" modified="No">0</Option>
  </Options>
  <Variables NVar="18">
    <Variable VarIndex="0" Expression="etap_IPCHI2_OWNPV" Label="etap_IPCHI2_OWNPV" Title="etap_IPCHI2_OWNPV" Unit="" Internal="etap_IPCHI2_OWNPV" Type="F" Min="6.21708441e+00" Max="5.79650781e+03"/>
    <Variable VarIndex="1" Expression="etap_FDCHI2_OWNPV" Label="etap_FDCHI2_OWNPV" Title="etap_FDCHI2_OWNPV" Unit="" Internal="etap_FDCHI2_OWNPV" Type="F" Min="1.57884054e+01" Max="6.10781719e+04"/>
    <Variable VarIndex="2" Expression="etap_VCHI2PERDOF" Label="etap_VCHI2PERDOF" Title="etap_VCHI2PERDOF" Unit="" Internal="etap_VCHI2PERDOF" Type="F" Min="2.45757103e-02" Max="9.98652458e+00"/>
    <Variable VarIndex="3" Expression="etap_PT" Label="etap_PT" Title="etap_PT" Unit="" Internal="etap_PT" Type="F" Min="4.71655823e+02" Max="4.66450469e+04"/>
    <Variable VarIndex="4" Expression="Ds_IPCHI2_OWNPV" Label="Ds_IPCHI2_OWNPV" Title="Ds_IPCHI2_OWNPV" Unit="" Internal="Ds_IPCHI2_OWNPV" Type="F" Min="5.59748441e-04" Max="9.99215317e+00"/>
    <Variable VarIndex="5" Expression="Ds_FDCHI2_OWNPV" Label="Ds_FDCHI2_OWNPV" Title="Ds_FDCHI2_OWNPV" Unit="" Internal="Ds_FDCHI2_OWNPV" Type="F" Min="1.80563984e+01" Max="1.52141281e+05"/>
    <Variable VarIndex="6" Expression="Ds_VCHI2PERDOF" Label="Ds_VCHI2PERDOF" Title="Ds_VCHI2PERDOF" Unit="" Internal="Ds_VCHI2PERDOF" Type="F" Min="4.91758287e-02" Max="1.49951124e+01"/>
    <Variable VarIndex="7" Expression="Ds_PT" Label="Ds_PT" Title="Ds_PT" Unit="" Internal="Ds_PT" Type="F" Min="2.48817505e+03" Max="5.46798516e+04"/>
    <Variable VarIndex="8" Expression="pi_PT" Label="pi_PT" Title="pi_PT" Unit="" Internal="pi_PT" Type="F" Min="4.96369553e+01" Max="3.08528809e+04"/>
    <Variable VarIndex="9" Expression="pi_IPCHI2_OWNPV" Label="pi_IPCHI2_OWNPV" Title="pi_IPCHI2_OWNPV" Unit="" Internal="pi_IPCHI2_OWNPV" Type="F" Min="5.06753206e+00" Max="9.70342480e+03"/>
    <Variable VarIndex="10" Expression="pip_eta_PT" Label="pip_eta_PT" Title="pip_eta_PT" Unit="" Internal="pip_eta_PT" Type="F" Min="5.04390564e+01" Max="1.21917158e+04"/>
    <Variable VarIndex="11" Expression="pip_eta_IPCHI2_OWNPV" Label="pip_eta_IPCHI2_OWNPV" Title="pip_eta_IPCHI2_OWNPV" Unit="" Internal="pip_eta_IPCHI2_OWNPV" Type="F" Min="5.00089073e+00" Max="3.70725098e+03"/>
    <Variable VarIndex="12" Expression="pim_eta_PT" Label="pim_eta_PT" Title="pim_eta_PT" Unit="" Internal="pim_eta_PT" Type="F" Min="5.78314552e+01" Max="1.77118320e+04"/>
    <Variable VarIndex="13" Expression="pim_eta_IPCHI2_OWNPV" Label="pim_eta_IPCHI2_OWNPV" Title="pim_eta_IPCHI2_OWNPV" Unit="" Internal="pim_eta_IPCHI2_OWNPV" Type="F" Min="5.03765583e+00" Max="9.83542090e+03"/>
    <Variable VarIndex="14" Expression="mup_PT" Label="mup_PT" Title="mup_PT" Unit="" Internal="mup_PT" Type="F" Min="7.74528198e+01" Max="1.26784902e+04"/>
    <Variable VarIndex="15" Expression="mup_IPCHI2_OWNPV" Label="mup_IPCHI2_OWNPV" Title="mup_IPCHI2_OWNPV" Unit="" Internal="mup_IPCHI2_OWNPV" Type="F" Min="5.01294565e+00" Max="3.73301416e+03"/>
    <Variable VarIndex="16" Expression="mum_PT" Label="mum_PT" Title="mum_PT" Unit="" Internal="mum_PT" Type="F" Min="9.74531784e+01" Max="1.77118320e+04"/>
    <Variable VarIndex="17" Expression="mum_IPCHI2_OWNPV" Label="mum_IPCHI2_OWNPV" Title="mum_IPCHI2_OWNPV" Unit="" Internal="mum_IPCHI2_OWNPV" Type="F" Min="5.02827263e+00" Max="4.30823291e+03"/>
  </Variables>
  <Spectators NSpec="2">
    <Spectator SpecIndex="0" Expression="Ds_M" Label="Ds_M" Title="F" Unit="" Internal="Ds_M" Type="F" Min="1.82830444e+03" Max="2.23608057e+03"/>
    <Spectator SpecIndex="1" Expression="etap_M" Label="etap_M" Title="F" Unit="" Internal="etap_M" Type="F" Min="8.81178589e+02" Max="1.05749988e+03"/>
  </Spectators>
  <Classes NClass="2">
    <Class Name="Signal" Index="0"/>
    <Class Name="Background" Index="1"/>
  </Classes>
  <Transformations NTransformations="0"/>
  <MVAPdfs/>
  <Weights NTrees="500" AnalysisType="0">
    <BinaryTree type="DecisionTree" boostWeight="8.5666341093279419e-01" itree="0">
      <Node pos="s" depth="0" NCoef="0" IVar="6" Cut="2.1436169147491455e+00" cType="1" res="-9.9000000000000000e+01" rms="0.0000000000000000e+00" purity="4.8917332291603088e-01" nType="0">
        <Node pos="l" depth="1" NCoef="0" IVar="4" Cut="4.7550225257873535e+00" cType="1" res="-9.9000000000000000e+01" rms="0.0000000000000000e+00" purity="7.3009908199310303e-01" nType="0">
          <Node pos="l" depth="2" NCoef="0" IVar="10" Cut="4.8320126342773438e+02" cType="0" res="-9.9000000000000000e+01" rms="0.0000000000000000e+00" purity="8.3380109071731567e-01" nType="0">
            <Node pos="l" depth="3" NCoef="0" IVar="-1" Cut="3.3853373527526855e+00" cType="1" res="-9.9000000000000000e+01" rms="0.0000000000000000e+00" purity="8.8524150848388672e-01" nType="1"/>
            <Node pos="r" depth="3" NCoef="0" IVar="14" Cut="1.0503312988281250e+03" cType="1" res="-9.9000000000000000e+01" rms="0.0000000000000000e+00" purity="6.4300483465194702e-01" nType="0">
              <Node pos="l" depth="4" NCoef="0" IVar="-1" Cut="0.0000000000000000e+00" cType="1" res="-9.9000000000000000e+01" rms="0.0000000000000000e+00" purity="9.5818847417831421e-01" nType="1"/>
              <Node pos="r" depth="4" NCoef="0" IVar="6" Cut="9.8409616947174072e-01" cType="1" res="-9.9000000000000000e+01" rms="0.0000000000000000e+00" purity="4.8889106512069702e-01" nType="0">
                <Node pos="l" depth="5" NCoef="0" IVar="-1" Cut="0.0000000000000000e+00" cType="1" res="-9.9000000000000000e+01" rms="0.0000000000000000e+00" purity="7.2655391693115234e-01" nType="1"/>
                <Node pos="r" depth="5" NCoef="0" IVar="-1" Cut="0.0000000000000000e+00" cType="1" res="-9.9000000000000000e+01" rms="0.0000000000000000e+00" purity="2.9554185271263123e-01" nType="-1"/>
              </Node>
            </Node>
          </Node>
          <Node pos="r" depth="2" NCoef="0" IVar="3" Cut="4.7084887695312500e+03" cType="0" res="-9.9000000000000000e+01" rms="0.0000000000000000e+00" purity="3.9250117540359497e-01" nType="0">
            <Node pos="l" depth="3" NCoef="0" IVar="0" Cut="8.2971748352050781e+01" cType="0" res="-9.9000000000000000e+01" rms="0.0000000000000000e+00" purity="6.3377535343170166e-01" nType="0">
              <Node pos="l" depth="4" NCoef="0" IVar="-1" Cut="0.0000000000000000e+00" cType="1" res="-9.9000000000000000e+01" rms="0.0000000000000000e+00" purity="7.6985085010528564e-01" nType="1"/>
              <Node pos="r" depth="4" NCoef="0" IVar="-1" Cut="0.0000000000000000e+00" cType="1" res="-9.9000000000000000e+01" rms="0.0000000000000000e+00" purity="4.4096761941909790e-01" nType="-1"/>
            </Node>
            <Node pos="r" depth="3" NCoef="0" IVar="-1" Cut="0.0000000000000000e+00" cType="1" res="-9.9000000000000000e+01" rms="0.0000000000000000e+00" purity="1.5839521586894989e-01" nType="-1"/>
          </Node>
        </Node>
        <Node pos="r" depth="1" NCoef="0" IVar="7" Cut="7.4588110351562500e+03" cType="0" res="-9.9000000000000000e+01" rms="0.0000000000000000e+00" purity="2.0621293783187866e-01" nType="0">
          <Node pos="l" depth="2" NCoef="0" IVar="4" Cut="4.7465085983276367e+00" cType="1" res="-9.9000000000000000e+01" rms="0.0000000000000000e+00" purity="3.5828307271003723e-01" nType="0">
            <Node pos="l" depth="3" NCoef="0" IVar="11" Cut="1.2470207214355469e+02" cType="0" res="-9.9000000000000000e+01" rms="0.0000000000000000e+00" purity="5.3836721181869507e-01" nType="0">
              <Node pos="l" depth="4" NCoef="0" IVar="-1" Cut="0.0000000000000000e+00" cType="1" res="-9.9000000000000000e+01" rms="0.0000000000000000e+00" purity="8.4568184614181519e-01" nType="1"/>
              <Node pos="r" depth="4" NCoef="0" IVar="11" Cut="2.7130611419677734e+01" cType="0" res="-9.9000000000000000e+01" rms="0.0000000000000000e+00" purity="4.2357608675956726e-01" nType="0">
                <Node pos="l" depth="5" NCoef="0" IVar="-1" Cut="0.0000000000000000e+00" cType="1" res="-9.9000000000000000e+01" rms="0.0000000000000000e+00" purity="5.7054156064987183e-01" nType="1"/>
                <Node pos="r" depth="5" NCoef="0" IVar="-1" Cut="0.0000000000000000e+00" cType="1" res="-9.9000000000000000e+01" rms="0.0000000000000000e+00" purity="2.7464038133621216e-01" nType="-1"/>
              </Node>
            </Node>
            <Node pos="r" depth="3" NCoef="0" IVar="-1" Cut="8.8843879699707031e+01" cType="0" res="-9.9000000000000000e+01" rms="0.0000000000000000e+00" purity="1.5741387009620667e-01" nType="-1"/>
          </Node>
          <Node pos="r" depth="2" NCoef="0" IVar="-1" Cut="4.6417324066162109e+01" cType="0" res="-9.9000000000000000e+01" rms="0.0000000000000000e+00" purity="6.9417469203472137e-02" nType="-1"/>
        </Node>
      </Node>
    </BinaryTree>
    <BinaryTree type="DecisionTree" boostWeight="7.3878138587797215e-01" itree="1">
      <Node pos="s" depth="0" NCoef="0" IVar="6" Cut="2.8535599708557129e+00" cType="1" res="-9.9000000000000000e+01" rms="0.0000000000000000e+00" purity="5.0525134801864624e-01" nType="0">
        <Node pos="l" depth="1" NCoef="0" IVar="7" Cut="7.2241083984375000e+03" cType="0" res="-9.9000000000000000e+01" rms="0.0000000000000000e+00" purity="6.3894641399383545e-01" nType="0">
          <Node pos="l" depth="2" NCoef="0" IVar="4" Cut="6.1178278923034668e+00" cType="1" res="-9.9000000000000000e+01" rms="0.0000000000000000e+00" purity="7.7799433469772339e-01" nType="0">
            <Node pos="l" depth="3" NCoef="0" IVar="10" Cut="2.0655910644531250e+03" cType="0" res="-9.9000000000000000e+01" rms="0.0000000000000000e+00" purity="8.3570635318756104e-01" nType="0">
              <Node pos="l" depth="4" NCoef="0" IVar="-1" Cut="0.0000000000000000e+00" cType="1" res="-9.9000000000000000e+01" rms="0.0000000000000000e+00" purity="1.0000000000000000e+00" nType="1"/>
              <Node pos="r" depth="4" NCoef="0" IVar="4" Cut="1.7469995021820068e+00" cType="1" res="-9.9000000000000000e+01" rms="0.0000000000000000e+00" purity="7.8523826599121094e-01" nType="0">
                <Node pos="l" depth="5" NCoef="0" IVar="-1" Cut="2.8234811401367188e+02" cType="1" res="-9.9000000000000000e+01" rms="0.0000000000000000e+00" purity="8.8194179534912109e-01" nType="1"/>
                <Node pos="r" depth="5" NCoef="0" IVar="7" Cut="1.0626396484375000e+04" cType="0" res="-9.9000000000000000e+01" rms="0.0000000000000000e+00" purity="6.7229115962982178e-01" nType="0">
                  <Node pos="l" depth="6" NCoef="0" IVar="-1" Cut="0.0000000000000000e+00" cType="1" res="-9.9000000000000000e+01" rms="0.0000000000000000e+00" purity="8.7451648712158203e-01" nType="1"/>
                  <Node pos="r" depth="6" NCoef="0" IVar="6" Cut="1.4727768898010254e+00" cType="1" res="-9.9000000000000000e+01" rms="0.0000000000000000e+00" purity="5.3413832187652588e-01" nType="0">
                    <Node pos="l" depth="7" NCoef="0" IVar="-1" Cut="0.0000000000000000e+00" cType="1" res="-9.9000000000000000e+01" rms="0.0000000000000000e+00" purity="7.4199873208999634e-01" nType="1"/>
                    <Node pos="r" depth="7" NCoef="0" IVar="-1" Cut="0.0000000000000000e+00" cType="1" res="-9.9000000000000000e+01" rms="0.0000000000000000e+00" purity="2.9820463061332703e-01" nType="-1"/>
                  </Node>
                </Node>
              </Node>
            </Node>
            <Node pos="r" depth="3" NCoef="0" IVar="-1" Cut="1.0640685558319092e+00" cType="1" res="-9.9000000000000000e+01" rms="0.0000000000000000e+00" purity="4.6608561277389526e-01" nType="-1"/>
          </Node>
          <Node pos="r" depth="2" NCoef="0" IVar="4" Cut="3.8096528053283691e+00" cType="1" res="-9.9000000000000000e+01" rms="0.0000000000000000e+00" purity="4.2308208346366882e-01" nType="0">
            <Node pos="l" depth="3" NCoef="0" IVar="11" Cut="7.6428253173828125e+01" cType="0" res="-9.9000000000000000e+01" rms="0.0000000000000000e+00" purity="5.6597214937210083e-01" nType="0">
              <Node pos="l" depth="4" NCoef="0" IVar="-1" Cut="0.0000000000000000e+00" cType="1" res="-9.9000000000000000e+01" rms="0.0000000000000000e+00" purity="7.5521528720855713e-01" nType="1"/>
              <Node pos="r" depth="4" NCoef="0" IVar="3" Cut="4.4505571289062500e+03" cType="1" res="-9.9000000000000000e+01" rms="0.0000000000000000e+00" purity="4.9232506752014160e-01" nType="0">
                <Node pos="l" depth="5" NCoef="0" IVar="3" Cut="3.2946853027343750e+03" cType="0" res="-9.9000000000000000e+01" rms="0.0000000000000000e+00" purity="6.0637831687927246e-01" nType="0">
                  <Node pos="l" depth="6" NCoef="0" IVar="-1" Cut="0.0000000000000000e+00" cType="1" res="-9.9000000000000000e+01" rms="0.0000000000000000e+00" purity="8.4108412265777588e-01" nType="1"/>
                  <Node pos="r" depth="6" NCoef="0" IVar="-1" Cut="0.0000000000000000e+00" cType="1" res="-9.9000000000000000e+01" rms="0.0000000000000000e+00" purity="3.5228106379508972e-01" nType="-1"/>
                </Node>
                <Node pos="r" depth="5" NCoef="0" IVar="-1" Cut="0.0000000000000000e+00" cType="1" res="-9.9000000000000000e+01" rms="0.0000000000000000e+00" purity="3.1569546461105347e-01" nType="-1"/>
              </Node>
            </Node>
            <Node pos="r" depth="3" NCoef="0" IVar="-1" Cut="4.1641420898437500e+03" cType="0" res="-9.9000000000000000e+01" rms="0.0000000000000000e+00" purity="2.3827949166297913e-01" nType="-1"/>
          </Node>
        </Node>
        <Node pos="r" depth="1" NCoef="0" IVar="7" Cut="7.5559736328125000e+03" cType="0" res="-9.9000000000000000e+01" rms="0.0000000000000000e+00" purity="2.3425029218196869e-01" nType="0">
          <Node pos="l" depth="2" NCoef="0" IVar="6" Cut="6.2493553161621094e+00" cType="1" res="-9.9000000000000000e+01" rms="0.0000000000000000e+00" purity="3.9347437024116516e-01" nType="0">
            <Node pos="l" depth="3" NCoef="0" IVar="10" Cut="7.7427722167968750e+02" cType="0" res="-9.9000000000000000e+01" rms="0.0000000000000000e+00" purity="5.4077327251434326e-01" nType="0">
              <Node pos="l" depth="4" NCoef="0" IVar="-1" Cut="4.1449799537658691e+00" cType="0" res="-9.9000000000000000e+01" rms="0.0000000000000000e+00" purity="7.4089825153350830e-01" nType="1"/>
              <Node pos="r" depth="4" NCoef="0" IVar="-1" Cut="0.0000000000000000e+00" cType="1" res="-9.9000000000000000e+01" rms="0.0000000000000000e+00" purity="1.8327488005161285e-01" nType="-1"/>
            </Node>
            <Node pos="r" depth="3" NCoef="0" IVar="-1" Cut="0.0000000000000000e+00" cType="1" res="-9.9000000000000000e+01" rms="0.0000000000000000e+00" purity="1.3346602022647858e-01" nType="-1"/>
          </Node>
          <Node pos="r" depth="2" NCoef="0" IVar="-1" Cut="3.9929513931274414e+00" cType="1" res="-9.9000000000000000e+01" rms="0.0000000000000000e+00" purity="8.9955590665340424e-02" nType="-1"/>
        </Node>
      </Node>
    </BinaryTree>
    <BinaryTree type="DecisionTree" boostWeight="6.8798739944024845e-01" itree="2">
      <Node pos="s" depth="0" NCoef="0" IVar="6" Cut="4.2191905975341797e+00" cType="1" res="-9.9000000000000000e+01" rms="0.0000000000000000e+00" purity="5.5427169799804688e-01" nType="0">
        <Node pos="l" depth="1" NCoef="0" IVar="4" Cut="3.3310909271240234e+00" cType="1" res="-9.9000000000000000e+01" rms="0.0000000000000000e+00" purity="6.6358643770217896e-01" nType="0">
          <Node pos="l" depth="2" NCoef="0" IVar="6" Cut="1.0428756475448608e+00" cType="1" res="-9.9000000000000000e+01" rms="0.0000000000000000e+00" purity="7.7205294370651245e-01" nType="0">
            <Node pos="l" depth="3" NCoef="0" IVar="-1" Cut="2.0068001708984375e+03" cType="1" res="-9.9000000000000000e+01" rms="0.0000000000000000e+00" purity="9.1257858276367188e-01" nType="1"/>
            <Node pos="r" depth="3" NCoef="0" IVar="10" Cut="4.9252172851562500e+02" cType="0" res="-9.9000000000000000e+01" rms="0.0000000000000000e+00" purity="6.7369806766510010e-01" nType="0">
              <Node pos="l" depth="4" NCoef="0" IVar="9" Cut="3.2194970703125000e+02" cType="0" res="-9.9000000000000000e+01" rms="0.0000000000000000e+00" purity="7.4589371681213379e-01" nType="0">
                <Node pos="l" depth="5" NCoef="0" IVar="-1" Cut="1.8016024780273438e+02" cType="1" res="-9.9000000000000000e+01" rms="0.0000000000000000e+00" purity="8.7570494413375854e-01" nType="1"/>
                <Node pos="r" depth="5" NCoef="0" IVar="4" Cut="1.2403407096862793e+00" cType="1" res="-9.9000000000000000e+01" rms="0.0000000000000000e+00" purity="5.8472585678100586e-01" nType="0">
                  <Node pos="l" depth="6" NCoef="0" IVar="-1" Cut="0.0000000000000000e+00" cType="1" res="-9.9000000000000000e+01" rms="0.0000000000000000e+00" purity="7.7789688110351562e-01" nType="1"/>
                  <Node pos="r" depth="6" NCoef="0" IVar="-1" Cut="0.0000000000000000e+00" cType="1" res="-9.9000000000000000e+01" rms="0.0000000000000000e+00" purity="4.0398421883583069e-01" nType="-1"/>
                </Node>
              </Node>
              <Node pos="r" depth="4" NCoef="0" IVar="-1" Cut="0.0000000000000000e+00" cType="1" res="-9.9000000000000000e+01" rms="0.0000000000000000e+00" purity="3.6088341474533081e-01" nType="-1"/>
            </Node>
          </Node>
          <Node pos="r" depth="2" NCoef="0" IVar="3" Cut="4.2182265625000000e+03" cType="0" res="-9.9000000000000000e+01" rms="0.0000000000000000e+00" purity="5.1519095897674561e-01" nType="0">
            <Node pos="l" depth="3" NCoef="0" IVar="16" Cut="7.7878155517578125e+02" cType="0" res="-9.9000000000000000e+01" rms="0.0000000000000000e+00" purity="6.3225740194320679e-01" nType="0">
              <Node pos="l" depth="4" NCoef="0" IVar="6" Cut="1.8021993637084961e+00" cType="1" res="-9.9000000000000000e+01" rms="0.0000000000000000e+00" purity="6.8579930067062378e-01" nType="0">
                <Node pos="l" depth="5" NCoef="0" IVar="-1" Cut="7.8354007005691528e-01" cType="0" res="-9.9000000000000000e+01" rms="0.0000000000000000e+00" purity="7.7145850658416748e-01" nType="1"/>
                <Node pos="r" depth="5" NCoef="0" IVar="7" Cut="9.0968203125000000e+03" cType="0" res="-9.9000000000000000e+01" rms="0.0000000000000000e+00" purity="5.2430868148803711e-01" nType="0">
                  <Node pos="l" depth="6" NCoef="0" IVar="-1" Cut="0.0000000000000000e+00" cType="1" res="-9.9000000000000000e+01" rms="0.0000000000000000e+00" purity="7.1855568885803223e-01" nType="1"/>
                  <Node pos="r" depth="6" NCoef="0" IVar="-1" Cut="0.0000000000000000e+00" cType="1" res="-9.9000000000000000e+01" rms="0.0000000000000000e+00" purity="3.0673986673355103e-01" nType="-1"/>
                </Node>
              </Node>
              <Node pos="r" depth="4" NCoef="0" IVar="-1" Cut="0.0000000000000000e+00" cType="1" res="-9.9000000000000000e+01" rms="0.0000000000000000e+00" purity="3.9802560210227966e-01" nType="-1"/>
            </Node>
            <Node pos="r" depth="3" NCoef="0" IVar="4" Cut="6.5182962417602539e+00" cType="1" res="-9.9000000000000000e+01" rms="0.0000000000000000e+00" purity="2.7680033445358276e-01" nType="0">
              <Node pos="l" depth="4" NCoef="0" IVar="3" Cut="3.5003725585937500e+03" cType="0" res="-9.9000000000000000e+01" rms="0.0000000000000000e+00" purity="4.0008470416069031e-01" nType="0">
                <Node pos="l" depth="5" NCoef="0" IVar="-1" Cut="0.0000000000000000e+00" cType="1" res="-9.9000000000000000e+01" rms="0.0000000000000000e+00" purity="5.7919782400131226e-01" nType="1"/>
                <Node pos="r" depth="5" NCoef="0" IVar="-1" Cut="0.0000000000000000e+00" cType="1" res="-9.9000000000000000e+01" rms="0.0000000000000000e+00" purity="2.6660606265068054e-01" nType="-1"/>
              </Node>
              <Node pos="r" depth="4" NCoef="0" IVar="-1" Cut="0.0000000000000000e+00" cType="1" res="-9.9000000000000000e+01" rms="0.0000000000000000e+00" purity="5.0519879907369614e-02" nType="-1"/>
            </Node>
          </Node>
        </Node>
        <Node pos="r" depth="1" NCoef="0" IVar="14" Cut="1.0864675292968750e+03" cType="0" res="-9.9000000000000000e+01" rms="0.0000000000000000e+00" purity="1.7501777410507202e-01" nType="0">
          <Node pos="l" depth="2" NCoef="0" IVar="6" Cut="7.3302550315856934e+00" cType="1" res="-9.9000000000000000e+01" rms="0.0000000000000000e+00" purity="3.2421475648880005e-01" nType="0">
            <Node pos="l" depth="3" NCoef="0" IVar="-1" Cut="0.0000000000000000e+00" cType="1" res="-9.9000000000000000e+01" rms="0.0000000000000000e+00" purity="5.2476912736892700e-01" nType="1"/>
            <Node pos="r" depth="3" NCoef="0" IVar="-1" Cut="0.0000000000000000e+00" cType="1" res="-9.9000000000000000e+01" rms="0.0000000000000000e+00" purity="5.8929294347763062e-02" nType="-1"/>
          </Node>
          <Node pos="r" depth="2" NCoef="0" IVar="-1" Cut="5.7100429534912109e+00" cType="1" res="-9.9000000000000000e+01" rms="0.0000000000000000e+00" purity="5.3860522806644440e-02" nType="-1"/>
        </Node>
      </Node>
    </BinaryTree>
    <BinaryTree type="DecisionTree" boostWeight="5.7901955496170809e-01" itree="3">
      <Node pos="s" depth="0" NCoef="0" IVar="6" Cut="3.6415567398071289e+00" cType="1" res="-9.9000000000000000e+01" rms="0.0000000000000000e+00" purity="4.8984181880950928e-01" nType="0">
        <Node pos="l" depth="1" NCoef="0" IVar="4" Cut="5.7043704986572266e+00" cType="1" res="-9.9000000000000000e+01" rms="0.0000000000000000e+00" purity="5.9620767831802368e-01" nType="0">
          <Node pos="l" depth="2" NCoef="0" IVar="3" Cut="4.5836430664062500e+03" cType="0" res="-9.9000000000000000e+01" rms="0.0000000000000000e+00" purity="6.6234749555587769e-01" nType="0">
            <Node pos="l" depth="3" NCoef="0" IVar="2" Cut="1.9673370122909546e+00" cType="1" res="-9.9000000000000000e+01" rms="0.0000000000000000e+00" purity="7.3767238855361938e-01" nType="0">
              <Node pos="l" depth="4" NCoef="0" IVar="4" Cut="1.6292790174484253e+00" cType="1" res="-9.9000000000000000e+01" rms="0.0000000000000000e+00" purity="8.1249219179153442e-01" nType="0">
                <Node pos="l" depth="5" NCoef="0" IVar="-1" Cut="2.3565092773437500e+03" cType="0" res="-9.9000000000000000e+01" rms="0.0000000000000000e+00" purity="9.2086124420166016e-01" nType="1"/>
                <Node pos="r" depth="5" NCoef="0" IVar="4" Cut="2.0337553024291992e+00" cType="0" res="-9.9000000000000000e+01" rms="0.0000000000000000e+00" purity="7.3527795076370239e-01" nType="0">
                  <Node pos="l" depth="6" NCoef="0" IVar="-1" Cut="2.6268984375000000e+03" cType="1" res="-9.9000000000000000e+01" rms="0.0000000000000000e+00" purity="7.9391974210739136e-01" nType="1"/>
                  <Node pos="r" depth="6" NCoef="0" IVar="-1" Cut="0.0000000000000000e+00" cType="1" res="-9.9000000000000000e+01" rms="0.0000000000000000e+00" purity="4.7681555151939392e-01" nType="-1"/>
                </Node>
              </Node>
              <Node pos="r" depth="4" NCoef="0" IVar="12" Cut="1.4092379150390625e+03" cType="1" res="-9.9000000000000000e+01" rms="0.0000000000000000e+00" purity="5.4946941137313843e-01" nType="0">
                <Node pos="l" depth="5" NCoef="0" IVar="-1" Cut="0.0000000000000000e+00" cType="1" res="-9.9000000000000000e+01" rms="0.0000000000000000e+00" purity="7.1715706586837769e-01" nType="1"/>
                <Node pos="r" depth="5" NCoef="0" IVar="-1" Cut="2.5819406509399414e+00" cType="0" res="-9.9000000000000000e+01" rms="0.0000000000000000e+00" purity="3.8287737965583801e-01" nType="-1"/>
              </Node>
            </Node>
            <Node pos="r" depth="3" NCoef="0" IVar="17" Cut="6.2213714599609375e+01" cType="0" res="-9.9000000000000000e+01" rms="0.0000000000000000e+00" purity="5.1179206371307373e-01" nType="0">
              <Node pos="l" depth="4" NCoef="0" IVar="17" Cut="1.7277708435058594e+02" cType="1" res="-9.9000000000000000e+01" rms="0.0000000000000000e+00" purity="6.1805206537246704e-01" nType="0">
                <Node pos="l" depth="5" NCoef="0" IVar="-1" Cut="5.4969501953125000e+03" cType="0" res="-9.9000000000000000e+01" rms="0.0000000000000000e+00" purity="8.3569258451461792e-01" nType="1"/>
                <Node pos="r" depth="5" NCoef="0" IVar="3" Cut="3.8518247070312500e+03" cType="0" res="-9.9000000000000000e+01" rms="0.0000000000000000e+00" purity="4.0412956476211548e-01" nType="0">
                  <Node pos="l" depth="6" NCoef="0" IVar="-1" Cut="0.0000000000000000e+00" cType="1" res="-9.9000000000000000e+01" rms="0.0000000000000000e+00" purity="5.9172230958938599e-01" nType="1"/>
                  <Node pos="r" depth="6" NCoef="0" IVar="-1" Cut="0.0000000000000000e+00" cType="1" res="-9.9000000000000000e+01" rms="0.0000000000000000e+00" purity="2.6071912050247192e-01" nType="-1"/>
                </Node>
              </Node>
              <Node pos="r" depth="4" NCoef="0" IVar="6" Cut="8.9435213804244995e-01" cType="1" res="-9.9000000000000000e+01" rms="0.0000000000000000e+00" purity="3.5962456464767456e-01" nType="0">
                <Node pos="l" depth="5" NCoef="0" IVar="-1" Cut="0.0000000000000000e+00" cType="1" res="-9.9000000000000000e+01" rms="0.0000000000000000e+00" purity="5.5634796619415283e-01" nType="1"/>
                <Node pos="r" depth="5" NCoef="0" IVar="-1" Cut="0.0000000000000000e+00" cType="1" res="-9.9000000000000000e+01" rms="0.0000000000000000e+00" purity="2.5646272301673889e-01" nType="-1"/>
              </Node>
            </Node>
          </Node>
          <Node pos="r" depth="2" NCoef="0" IVar="8" Cut="1.9681761474609375e+03" cType="1" res="-9.9000000000000000e+01" rms="0.0000000000000000e+00" purity="3.5387024283409119e-01" nType="0">
            <Node pos="l" depth="3" NCoef="0" IVar="-1" Cut="0.0000000000000000e+00" cType="1" res="-9.9000000000000000e+01" rms="0.0000000000000000e+00" purity="5.0898176431655884e-01" nType="1"/>
            <Node pos="r" depth="3" NCoef="0" IVar="15" Cut="8.0916969299316406e+01" cType="0" res="-9.9000000000000000e+01" rms="0.0000000000000000e+00" purity="2.6299375295639038e-01" nType="0">
              <Node pos="l" depth="4" NCoef="0" IVar="-1" Cut="0.0000000000000000e+00" cType="1" res="-9.9000000000000000e+01" rms="0.0000000000000000e+00" purity="5.1604020595550537e-01" nType="1"/>
              <Node pos="r" depth="4" NCoef="0" IVar="-1" Cut="0.0000000000000000e+00" cType="1" res="-9.9000000000000000e+01" rms="0.0000000000000000e+00" purity="1.2395560741424561e-01" nType="-1"/>
            </Node>
          </Node>
        </Node>
        <Node pos="r" depth="1" NCoef="0" IVar="7" Cut="1.2429446289062500e+04" cType="0" res="-9.9000000000000000e+01" rms="0.0000000000000000e+00" purity="1.7078472673892975e-01" nType="0">
          <Node pos="l" depth="2" NCoef="0" IVar="-1" Cut="0.0000000000000000e+00" cType="1" res="-9.9000000000000000e+01" rms="0.0000000000000000e+00" purity="5.1186853647232056e-01" nType="1"/>
          <Node pos="r" depth="2" NCoef="0" IVar="-1" Cut="7.1804155273437500e+03" cType="0" res="-9.9000000000000000e+01" rms="0.0000000000000000e+00" purity="9.0981841087341309e-02" nType="-1"/>
        </Node>
      </Node>
    </BinaryTree>
    <BinaryTree type="DecisionTree" boostWeight="6.0271597011049005e-01" itree="4">
      <Node pos="s" depth="0" NCoef="0" IVar="6" Cut="5.0607514381408691e+00" cType="1" res="-9.9000000000000000e+01" rms="0.0000000000000000e+00" purity="4.8621919751167297e-01" nType="0">
        <Node pos="l" depth="1" NCoef="0" IVar="4" Cut="5.6567072868347168e+00" cType="1" res="-9.9000000000000000e+01" rms="0.0000000000000000e+00" purity="5.5751347541809082e-01" nType="0">
          <Node pos="l" depth="2" NCoef="0" IVar="4" Cut="1.6161330938339233e+00" cType="1" res="-9.9000000000000000e+01" rms="0.0000000000000000e+00" purity="6.4448338747024536e-01" nType="0">
            <Node pos="l" depth="3" NCoef="0" IVar="3" Cut="4.7960654296875000e+03" cType="0" res="-9.9000000000000000e+01" rms="0.0000000000000000e+00" purity="7.7149653434753418e-01" nType="0">
              <Node pos="l" depth="4" NCoef="0" IVar="-1" Cut="1.0778086185455322e+00" cType="1" res="-9.9000000000000000e+01" rms="0.0000000000000000e+00" purity="8.9235556125640869e-01" nType="1"/>
              <Node pos="r" depth="4" NCoef="0" IVar="16" Cut="9.1651153564453125e+02" cType="0" res="-9.9000000000000000e+01" rms="0.0000000000000000e+00" purity="6.0425525903701782e-01" nType="0">
                <Node pos="l" depth="5" NCoef="0" IVar="-1" Cut="0.0000000000000000e+00" cType="1" res="-9.9000000000000000e+01" rms="0.0000000000000000e+00" purity="7.7715480327606201e-01" nType="1"/>
                <Node pos="r" depth="5" NCoef="0" IVar="-1" Cut="0.0000000000000000e+00" cType="1" res="-9.9000000000000000e+01" rms="0.0000000000000000e+00" purity="4.3388178944587708e-01" nType="-1"/>
              </Node>
            </Node>
            <Node pos="r" depth="3" NCoef="0" IVar="14" Cut="1.5744934082031250e+03" cType="0" res="-9.9000000000000000e+01" rms="0.0000000000000000e+00" purity="5.5973160266876221e-01" nType="0">
              <Node pos="l" depth="4" NCoef="0" IVar="8" Cut="1.5662650146484375e+03" cType="0" res="-9.9000000000000000e+01" rms="0.0000000000000000e+00" purity="7.0682251453399658e-01" nType="0">
                <Node pos="l" depth="5" NCoef="0" IVar="-1" Cut="4.2924487304687500e+02" cType="1" res="-9.9000000000000000e+01" rms="0.0000000000000000e+00" purity="7.7334207296371460e-01" nType="1"/>
                <Node pos="r" depth="5" NCoef="0" IVar="-1" Cut="0.0000000000000000e+00" cType="1" res="-9.9000000000000000e+01" rms="0.0000000000000000e+00" purity="4.4816327095031738e-01" nType="-1"/>
              </Node>
              <Node pos="r" depth="4" NCoef="0" IVar="2" Cut="6.4778071641921997e-01" cType="1" res="-9.9000000000000000e+01" rms="0.0000000000000000e+00" purity="4.5809721946716309e-01" nType="0">
                <Node pos="l" depth="5" NCoef="0" IVar="-1" Cut="0.0000000000000000e+00" cType="1" res="-9.9000000000000000e+01" rms="0.0000000000000000e+00" purity="7.5763201713562012e-01" nType="1"/>
                <Node pos="r" depth="5" NCoef="0" IVar="13" Cut="1.5206596374511719e+02" cType="0" res="-9.9000000000000000e+01" rms="0.0000000000000000e+00" purity="3.8267853856086731e-01" nType="0">
                  <Node pos="l" depth="6" NCoef="0" IVar="-1" Cut="0.0000000000000000e+00" cType="1" res="-9.9000000000000000e+01" rms="0.0000000000000000e+00" purity="5.3729838132858276e-01" nType="1"/>
                  <Node pos="r" depth="6" NCoef="0" IVar="4" Cut="3.3543946743011475e+00" cType="1" res="-9.9000000000000000e+01" rms="0.0000000000000000e+00" purity="3.2477173209190369e-01" nType="0">
                    <Node pos="l" depth="7" NCoef="0" IVar="7" Cut="7.3716025390625000e+03" cType="0" res="-9.9000000000000000e+01" rms="0.0000000000000000e+00" purity="4.2331719398498535e-01" nType="0">
                      <Node pos="l" depth="8" NCoef="0" IVar="-1" Cut="0.0000000000000000e+00" cType="1" res="-9.9000000000000000e+01" rms="0.0000000000000000e+00" purity="5.5572348833084106e-01" nType="1"/>
                      <Node pos="r" depth="8" NCoef="0" IVar="-1" Cut="0.0000000000000000e+00" cType="1" res="-9.9000000000000000e+01" rms="0.0000000000000000e+00" purity="2.8433808684349060e-01" nType="-1"/>
                    </Node>
                    <Node pos="r" depth="7" NCoef="0" IVar="-1" Cut="0.0000000000000000e+00" cType="1" res="-9.9000000000000000e+01" rms="0.0000000000000000e+00" purity="2.0978716015815735e-01" nType="-1"/>
                  </Node>
                </Node>
              </Node>
            </Node>
          </Node>
          <Node pos="r" depth="2" NCoef="0" IVar="6" Cut="1.3134155273437500e+00" cType="1" res="-9.9000000000000000e+01" rms="0.0000000000000000e+00" purity="3.2038736343383789e-01" nType="0">
            <Node pos="l" depth="3" NCoef="0" IVar="10" Cut="8.7284436035156250e+02" cType="0" res="-9.9000000000000000e+01" rms="0.0000000000000000e+00" purity="5.0119602680206299e-01" nType="0">
              <Node pos="l" depth="4" NCoef="0" IVar="-1" Cut="0.0000000000000000e+00" cType="1" res="-9.9000000000000000e+01" rms="0.0000000000000000e+00" purity="7.4396175146102905e-01" nType="1"/>
              <Node pos="r" depth="4" NCoef="0" IVar="-1" Cut="0.0000000000000000e+00" cType="1" res="-9.9000000000000000e+01" rms="0.0000000000000000e+00" purity="2.9541742801666260e-01" nType="-1"/>
            </Node>
            <Node pos="r" depth="3" NCoef="0" IVar="-1" Cut="1.4726450195312500e+03" cType="0" res="-9.9000000000000000e+01" rms="0.0000000000000000e+00" purity="2.0976004004478455e-01" nType="-1"/>
          </Node>
        </Node>
        <Node pos="r" depth="1" NCoef="0" IVar="-1" Cut="1.1668409179687500e+04" cType="0" res="-9.9000000000000000e+01" rms="0.0000000000000000e+00" purity="1.0638073831796646e-01" nType="-1"/>
      </Node>
    </BinaryTree>
    <BinaryTree type="DecisionTree" boostWeight="5.4234920314056811e-01" itree="5">
      <Node pos="s" depth="0" NCoef="0" IVar="6" Cut="3.5502054691314697e+00" cType="1" res="-9.9000000000000000e+01" rms="0.0000000000000000e+00" purity="4.9749243259429932e-01" nType="0">
        <Node pos="l" depth="1" NCoef="0" IVar="4" Cut="7.5600514411926270e+00" cType="1" res="-9.9000000000000000e+01" rms="0.0000000000000000e+00" purity="5.8905768394470215e-01" nType="0">
          <Node pos="l" depth="2" NCoef="0" IVar="12" Cut="1.2570954589843750e+03" cType="0" res="-9.9000000000000000e+01" rms="0.0000000000000000e+00" purity="6.3614165782928467e-01" nType="0">
            <Node pos="l" depth="3" NCoef="0" IVar="16" Cut="2.6979770507812500e+03" cType="1" res="-9.9000000000000000e+01" rms="0.0000000000000000e+00" purity="7.4661374092102051e-01" nType="0">
              <Node pos="l" depth="4" NCoef="0" IVar="4" Cut="1.0750899314880371e+00" cType="1" res="-9.9000000000000000e+01" rms="0.0000000000000000e+00" purity="8.0450022220611572e-01" nType="0">
                <Node pos="l" depth="5" NCoef="0" IVar="-1" Cut="0.0000000000000000e+00" cType="1" res="-9.9000000000000000e+01" rms="0.0000000000000000e+00" purity="1.0000000000000000e+00" nType="1"/>
                <Node pos="r" depth="5" NCoef="0" IVar="7" Cut="7.9226679687500000e+03" cType="0" res="-9.9000000000000000e+01" rms="0.0000000000000000e+00" purity="7.4262619018554688e-01" nType="0">
                  <Node pos="l" depth="6" NCoef="0" IVar="-1" Cut="2.2947933673858643e+00" cType="0" res="-9.9000000000000000e+01" rms="0.0000000000000000e+00" purity="8.1246960163116455e-01" nType="1"/>
                  <Node pos="r" depth="6" NCoef="0" IVar="-1" Cut="0.0000000000000000e+00" cType="1" res="-9.9000000000000000e+01" rms="0.0000000000000000e+00" purity="4.9493810534477234e-01" nType="-1"/>
                </Node>
              </Node>
              <Node pos="r" depth="4" NCoef="0" IVar="2" Cut="1.3390388488769531e+00" cType="1" res="-9.9000000000000000e+01" rms="0.0000000000000000e+00" purity="5.2484202384948730e-01" nType="0">
                <Node pos="l" depth="5" NCoef="0" IVar="-1" Cut="0.0000000000000000e+00" cType="1" res="-9.9000000000000000e+01" rms="0.0000000000000000e+00" purity="6.5510237216949463e-01" nType="1"/>
                <Node pos="r" depth="5" NCoef="0" IVar="-1" Cut="0.0000000000000000e+00" cType="1" res="-9.9000000000000000e+01" rms="0.0000000000000000e+00" purity="4.0232306718826294e-01" nType="-1"/>
              </Node>
            </Node>
            <Node pos="r" depth="3" NCoef="0" IVar="6" Cut="2.1722104549407959e+00" cType="1" res="-9.9000000000000000e+01" rms="0.0000000000000000e+00" purity="5.6185537576675415e-01" nType="0">
              <Node pos="l" depth="4" NCoef="0" IVar="13" Cut="1.3005335998535156e+02" cType="0" res="-9.9000000000000000e+01" rms="0.0000000000000000e+00" purity="6.0586243867874146e-01" nType="0">
                <Node pos="l" depth="5" NCoef="0" IVar="-1" Cut="8.3035797119140625e+02" cType="1" res="-9.9000000000000000e+01" rms="0.0000000000000000e+00" purity="8.4309422969818115e-01" nType="1"/>
                <Node pos="r" depth="5" NCoef="0" IVar="13" Cut="5.2269878387451172e+01" cType="1" res="-9.9000000000000000e+01" rms="0.0000000000000000e+00" purity="5.5445986986160278e-01" nType="0">
                  <Node pos="l" depth="6" NCoef="0" IVar="13" Cut="1.1815767288208008e+01" cType="0" res="-9.9000000000000000e+01" rms="0.0000000000000000e+00" purity="6.6436690092086792e-01" nType="0">
                    <Node pos="l" depth="7" NCoef="0" IVar="-1" Cut="1.1569875488281250e+03" cType="0" res="-9.9000000000000000e+01" rms="0.0000000000000000e+00" purity="7.5401669740676880e-01" nType="1"/>
                    <Node pos="r" depth="7" NCoef="0" IVar="-1" Cut="0.0000000000000000e+00" cType="1" res="-9.9000000000000000e+01" rms="0.0000000000000000e+00" purity="4.8409643769264221e-01" nType="-1"/>
                  </Node>
                  <Node pos="r" depth="6" NCoef="0" IVar="12" Cut="5.2831237792968750e+02" cType="0" res="-9.9000000000000000e+01" rms="0.0000000000000000e+00" purity="4.0375515818595886e-01" nType="0">
                    <Node pos="l" depth="7" NCoef="0" IVar="5" Cut="1.6707436523437500e+03" cType="0" res="-9.9000000000000000e+01" rms="0.0000000000000000e+00" purity="5.3636860847473145e-01" nType="0">
                      <Node pos="l" depth="8" NCoef="0" IVar="-1" Cut="0.0000000000000000e+00" cType="1" res="-9.9000000000000000e+01" rms="0.0000000000000000e+00" purity="6.7274087667465210e-01" nType="1"/>
                      <Node pos="r" depth="8" NCoef="0" IVar="-1" Cut="0.0000000000000000e+00" cType="1" res="-9.9000000000000000e+01" rms="0.0000000000000000e+00" purity="4.1446515917778015e-01" nType="-1"/>
                    </Node>
                    <Node pos="r" depth="7" NCoef="0" IVar="-1" Cut="0.0000000000000000e+00" cType="1" res="-9.9000000000000000e+01" rms="0.0000000000000000e+00" purity="2.3417744040489197e-01" nType="-1"/>
                  </Node>
                </Node>
              </Node>
              <Node pos="r" depth="4" NCoef="0" IVar="16" Cut="1.2622110595703125e+03" cType="0" res="-9.9000000000000000e+01" rms="0.0000000000000000e+00" purity="4.1918963193893433e-01" nType="0">
                <Node pos="l" depth="5" NCoef="0" IVar="-1" Cut="0.0000000000000000e+00" cType="1" res="-9.9000000000000000e+01" rms="0.0000000000000000e+00" purity="6.2173748016357422e-01" nType="1"/>
                <Node pos="r" depth="5" NCoef="0" IVar="-1" Cut="0.0000000000000000e+00" cType="1" res="-9.9000000000000000e+01" rms="0.0000000000000000e+00" purity="2.6497602462768555e-01" nType="-1"/>
              </Node>
            </Node>
          </Node>
          <Node pos="r" depth="2" NCoef="0" IVar="-1" Cut="1.4606156349182129e+00" cType="1" res="-9.9000000000000000e+01" rms="0.0000000000000000e+00" purity="2.6607653498649597e-01" nType="-1"/>
        </Node>
        <Node pos="r" depth="1" NCoef="0" IVar="11" Cut="1.8129850769042969e+02" cType="0" res="-9.9000000000000000e+01" rms="0.0000000000000000e+00" purity="2.5680267810821533e-01" nType="0">
          <Node pos="l" depth="2" NCoef="0" IVar="-1" Cut="0.0000000000000000e+00" cType="1" res="-9.9000000000000000e+01" rms="0.0000000000000000e+00" purity="6.6232478618621826e-01" nType="1"/>
          <Node pos="r" depth="2" NCoef="0" IVar="-1" Cut="2.9182216796875000e+03" cType="0" res="-9.9000000000000000e+01" rms="0.0000000000000000e+00" purity="1.8528884649276733e-01" nType="-1"/>
        </Node>
      </Node>
    </BinaryTree>
    <BinaryTree type="DecisionTree" boostWeight="5.6216182817037075e-01" itree="6">
      <Node pos="s" depth="0" NCoef="0" IVar="4" Cut="1.9082216024398804e+00" cType="1" res="-9.9000000000000000e+01" rms="0.0000000000000000e+00" purity="5.0038182735443115e-01" nType="0">
        <Node pos="l" depth="1" NCoef="0" IVar="6" Cut="2.1225457191467285e+00" cType="1" res="-9.9000000000000000e+01" rms="0.0000000000000000e+00" purity="7.2449994087219238e-01" nType="0">
          <Node pos="l" depth="2" NCoef="0" IVar="9" Cut="8.9220208740234375e+02" cType="1" res="-9.9000000000000000e+01" rms="0.0000000000000000e+00" purity="7.9707425832748413e-01" nType="0">
            <Node pos="l" depth="3" NCoef="0" IVar="-1" Cut="2.9534338378906250e+03" cType="0" res="-9.9000000000000000e+01" rms="0.0000000000000000e+00" purity="8.8572168350219727e-01" nType="1"/>
            <Node pos="r" depth="3" NCoef="0" IVar="4" Cut="7.3439794778823853e-01" cType="0" res="-9.9000000000000000e+01" rms="0.0000000000000000e+00" purity="5.4038983583450317e-01" nType="0">
              <Node pos="l" depth="4" NCoef="0" IVar="-1" Cut="0.0000000000000000e+00" cType="1" res="-9.9000000000000000e+01" rms="0.0000000000000000e+00" purity="6.4904105663299561e-01" nType="1"/>
              <Node pos="r" depth="4" NCoef="0" IVar="-1" Cut="0.0000000000000000e+00" cType="1" res="-9.9000000000000000e+01" rms="0.0000000000000000e+00" purity="4.4024470448493958e-01" nType="-1"/>
            </Node>
          </Node>
          <Node pos="r" depth="2" NCoef="0" IVar="16" Cut="1.8400566406250000e+03" cType="0" res="-9.9000000000000000e+01" rms="0.0000000000000000e+00" purity="5.7689487934112549e-01" nType="0">
            <Node pos="l" depth="3" NCoef="0" IVar="-1" Cut="0.0000000000000000e+00" cType="1" res="-9.9000000000000000e+01" rms="0.0000000000000000e+00" purity="8.2002973556518555e-01" nType="1"/>
            <Node pos="r" depth="3" NCoef="0" IVar="7" Cut="8.5918847656250000e+03" cType="0" res="-9.9000000000000000e+01" rms="0.0000000000000000e+00" purity="4.3157851696014404e-01" nType="0">
              <Node pos="l" depth="4" NCoef="0" IVar="-1" Cut="0.0000000000000000e+00" cType="1" res="-9.9000000000000000e+01" rms="0.0000000000000000e+00" purity="5.9280818700790405e-01" nType="1"/>
              <Node pos="r" depth="4" NCoef="0" IVar="-1" Cut="0.0000000000000000e+00" cType="1" res="-9.9000000000000000e+01" rms="0.0000000000000000e+00" purity="3.1653609871864319e-01" nType="-1"/>
            </Node>
          </Node>
        </Node>
        <Node pos="r" depth="1" NCoef="0" IVar="6" Cut="4.9535493850708008e+00" cType="1" res="-9.9000000000000000e+01" rms="0.0000000000000000e+00" purity="3.9337331056594849e-01" nType="0">
          <Node pos="l" depth="2" NCoef="0" IVar="14" Cut="1.3856851806640625e+03" cType="0" res="-9.9000000000000000e+01" rms="0.0000000000000000e+00" purity="4.6087175607681274e-01" nType="0">
            <Node pos="l" depth="3" NCoef="0" IVar="13" Cut="1.9876010131835938e+02" cType="0" res="-9.9000000000000000e+01" rms="0.0000000000000000e+00" purity="5.6778073310852051e-01" nType="0">
              <Node pos="l" depth="4" NCoef="0" IVar="-1" Cut="0.0000000000000000e+00" cType="1" res="-9.9000000000000000e+01" rms="0.0000000000000000e+00" purity="9.8365408182144165e-01" nType="1"/>
              <Node pos="r" depth="4" NCoef="0" IVar="14" Cut="2.5091523437500000e+03" cType="1" res="-9.9000000000000000e+01" rms="0.0000000000000000e+00" purity="5.0387579202651978e-01" nType="0">
                <Node pos="l" depth="5" NCoef="0" IVar="9" Cut="3.2719552612304688e+02" cType="0" res="-9.9000000000000000e+01" rms="0.0000000000000000e+00" purity="5.9520542621612549e-01" nType="0">
                  <Node pos="l" depth="6" NCoef="0" IVar="-1" Cut="0.0000000000000000e+00" cType="1" res="-9.9000000000000000e+01" rms="0.0000000000000000e+00" purity="8.4659880399703979e-01" nType="1"/>
                  <Node pos="r" depth="6" NCoef="0" IVar="5" Cut="8.5039501953125000e+02" cType="0" res="-9.9000000000000000e+01" rms="0.0000000000000000e+00" purity="4.5774704217910767e-01" nType="0">
                    <Node pos="l" depth="7" NCoef="0" IVar="-1" Cut="0.0000000000000000e+00" cType="1" res="-9.9000000000000000e+01" rms="0.0000000000000000e+00" purity="6.2023335695266724e-01" nType="1"/>
                    <Node pos="r" depth="7" NCoef="0" IVar="-1" Cut="0.0000000000000000e+00" cType="1" res="-9.9000000000000000e+01" rms="0.0000000000000000e+00" purity="2.4708519876003265e-01" nType="-1"/>
                  </Node>
                </Node>
                <Node pos="r" depth="5" NCoef="0" IVar="-1" Cut="4.6992946624755859e+01" cType="1" res="-9.9000000000000000e+01" rms="0.0000000000000000e+00" purity="3.7065035104751587e-01" nType="-1"/>
              </Node>
            </Node>
            <Node pos="r" depth="3" NCoef="0" IVar="14" Cut="3.2617654418945312e+02" cType="0" res="-9.9000000000000000e+01" rms="0.0000000000000000e+00" purity="3.6594191193580627e-01" nType="0">
              <Node pos="l" depth="4" NCoef="0" IVar="4" Cut="4.9882950782775879e+00" cType="1" res="-9.9000000000000000e+01" rms="0.0000000000000000e+00" purity="4.2427745461463928e-01" nType="0">
                <Node pos="l" depth="5" NCoef="0" IVar="2" Cut="1.2588669061660767e+00" cType="1" res="-9.9000000000000000e+01" rms="0.0000000000000000e+00" purity="5.1114523410797119e-01" nType="0">
                  <Node pos="l" depth="6" NCoef="0" IVar="-1" Cut="0.0000000000000000e+00" cType="1" res="-9.9000000000000000e+01" rms="0.0000000000000000e+00" purity="6.4001607894897461e-01" nType="1"/>
                  <Node pos="r" depth="6" NCoef="0" IVar="16" Cut="1.6277005615234375e+03" cType="1" res="-9.9000000000000000e+01" rms="0.0000000000000000e+00" purity="4.3063685297966003e-01" nType="0">
                    <Node pos="l" depth="7" NCoef="0" IVar="-1" Cut="0.0000000000000000e+00" cType="1" res="-9.9000000000000000e+01" rms="0.0000000000000000e+00" purity="5.7342714071273804e-01" nType="1"/>
                    <Node pos="r" depth="7" NCoef="0" IVar="-1" Cut="0.0000000000000000e+00" cType="1" res="-9.9000000000000000e+01" rms="0.0000000000000000e+00" purity="3.3480310440063477e-01" nType="-1"/>
                  </Node>
                </Node>
                <Node pos="r" depth="5" NCoef="0" IVar="-1" Cut="1.7550192260742188e+02" cType="1" res="-9.9000000000000000e+01" rms="0.0000000000000000e+00" purity="3.3453917503356934e-01" nType="-1"/>
              </Node>
              <Node pos="r" depth="4" NCoef="0" IVar="-1" Cut="0.0000000000000000e+00" cType="1" res="-9.9000000000000000e+01" rms="0.0000000000000000e+00" purity="1.4177085459232330e-01" nType="-1"/>
            </Node>
          </Node>
          <Node pos="r" depth="2" NCoef="0" IVar="-1" Cut="1.4596738281250000e+03" cType="0" res="-9.9000000000000000e+01" rms="0.0000000000000000e+00" purity="1.3340705633163452e-01" nType="-1"/>
        </Node>
      </Node>
    </BinaryTree>
    <BinaryTree type="DecisionTree" boostWeight="6.1049664836584461e-01" itree="7">
      <Node pos="s" depth="0" NCoef="0" IVar="6" Cut="4.2156257629394531e+00" cType="1" res="-9.9000000000000000e+01" rms="0.0000000000000000e+00" purity="4.8418113589286804e-01" nType="0">
        <Node pos="l" depth="1" NCoef="0" IVar="12" Cut="5.8196307373046875e+02" cType="0" res="-9.9000000000000000e+01" rms="0.0000000000000000e+00" purity="5.5642318725585938e-01" nType="0">
          <Node pos="l" depth="2" NCoef="0" IVar="12" Cut="4.7882304687500000e+03" cType="1" res="-9.9000000000000000e+01" rms="0.0000000000000000e+00" purity="6.2340497970581055e-01" nType="0">
            <Node pos="l" depth="3" NCoef="0" IVar="14" Cut="3.0634091796875000e+03" cType="0" res="-9.9000000000000000e+01" rms="0.0000000000000000e+00" purity="6.5386062860488892e-01" nType="0">
              <Node pos="l" depth="4" NCoef="0" IVar="-1" Cut="1.6088602294921875e+03" cType="0" res="-9.9000000000000000e+01" rms="0.0000000000000000e+00" purity="9.4815188646316528e-01" nType="1"/>
              <Node pos="r" depth="4" NCoef="0" IVar="4" Cut="7.6077003479003906e+00" cType="1" res="-9.9000000000000000e+01" rms="0.0000000000000000e+00" purity="6.0881227254867554e-01" nType="0">
                <Node pos="l" depth="5" NCoef="0" IVar="0" Cut="5.0459994506835938e+02" cType="0" res="-9.9000000000000000e+01" rms="0.0000000000000000e+00" purity="6.6305160522460938e-01" nType="0">
                  <Node pos="l" depth="6" NCoef="0" IVar="-1" Cut="0.0000000000000000e+00" cType="1" res="-9.9000000000000000e+01" rms="0.0000000000000000e+00" purity="1.0000000000000000e+00" nType="1"/>
                  <Node pos="r" depth="6" NCoef="0" IVar="11" Cut="5.8628120422363281e+01" cType="0" res="-9.9000000000000000e+01" rms="0.0000000000000000e+00" purity="6.3242357969284058e-01" nType="0">
                    <Node pos="l" depth="7" NCoef="0" IVar="8" Cut="1.3743546142578125e+03" cType="0" res="-9.9000000000000000e+01" rms="0.0000000000000000e+00" purity="7.6800692081451416e-01" nType="0">
                      <Node pos="l" depth="8" NCoef="0" IVar="-1" Cut="1.8330400085449219e+02" cType="1" res="-9.9000000000000000e+01" rms="0.0000000000000000e+00" purity="8.2542216777801514e-01" nType="1"/>
                      <Node pos="r" depth="8" NCoef="0" IVar="-1" Cut="0.0000000000000000e+00" cType="1" res="-9.9000000000000000e+01" rms="0.0000000000000000e+00" purity="4.9547052383422852e-01" nType="-1"/>
                    </Node>
                    <Node pos="r" depth="7" NCoef="0" IVar="11" Cut="1.7897378921508789e+01" cType="0" res="-9.9000000000000000e+01" rms="0.0000000000000000e+00" purity="5.2248299121856689e-01" nType="0">
                      <Node pos="l" depth="8" NCoef="0" IVar="14" Cut="6.6015576171875000e+02" cType="0" res="-9.9000000000000000e+01" rms="0.0000000000000000e+00" purity="7.1564084291458130e-01" nType="0">
                        <Node pos="l" depth="9" NCoef="0" IVar="-1" Cut="0.0000000000000000e+00" cType="1" res="-9.9000000000000000e+01" rms="0.0000000000000000e+00" purity="8.3711951971054077e-01" nType="1"/>
                        <Node pos="r" depth="9" NCoef="0" IVar="-1" Cut="0.0000000000000000e+00" cType="1" res="-9.9000000000000000e+01" rms="0.0000000000000000e+00" purity="4.4792813062667847e-01" nType="-1"/>
                      </Node>
                      <Node pos="r" depth="8" NCoef="0" IVar="-1" Cut="5.1631427001953125e+02" cType="0" res="-9.9000000000000000e+01" rms="0.0000000000000000e+00" purity="3.5329571366310120e-01" nType="-1"/>
                    </Node>
                  </Node>
                </Node>
                <Node pos="r" depth="5" NCoef="0" IVar="-1" Cut="0.0000000000000000e+00" cType="1" res="-9.9000000000000000e+01" rms="0.0000000000000000e+00" purity="2.7999007701873779e-01" nType="-1"/>
              </Node>
            </Node>
            <Node pos="r" depth="3" NCoef="0" IVar="-1" Cut="0.0000000000000000e+00" cType="1" res="-9.9000000000000000e+01" rms="0.0000000000000000e+00" purity="2.0418588817119598e-01" nType="-1"/>
          </Node>
          <Node pos="r" depth="2" NCoef="0" IVar="2" Cut="1.3214277029037476e+00" cType="0" res="-9.9000000000000000e+01" rms="0.0000000000000000e+00" purity="3.7833127379417419e-01" nType="0">
            <Node pos="l" depth="3" NCoef="0" IVar="12" Cut="3.3590652465820312e+02" cType="0" res="-9.9000000000000000e+01" rms="0.0000000000000000e+00" purity="5.3314155340194702e-01" nType="0">
              <Node pos="l" depth="4" NCoef="0" IVar="12" Cut="4.9346661376953125e+02" cType="1" res="-9.9000000000000000e+01" rms="0.0000000000000000e+00" purity="6.5758335590362549e-01" nType="0">
                <Node pos="l" depth="5" NCoef="0" IVar="-1" Cut="0.0000000000000000e+00" cType="1" res="-9.9000000000000000e+01" rms="0.0000000000000000e+00" purity="8.3172947168350220e-01" nType="1"/>
                <Node pos="r" depth="5" NCoef="0" IVar="-1" Cut="0.0000000000000000e+00" cType="1" res="-9.9000000000000000e+01" rms="0.0000000000000000e+00" purity="4.6353986859321594e-01" nType="-1"/>
              </Node>
              <Node pos="r" depth="4" NCoef="0" IVar="-1" Cut="0.0000000000000000e+00" cType="1" res="-9.9000000000000000e+01" rms="0.0000000000000000e+00" purity="3.3644685149192810e-01" nType="-1"/>
            </Node>
            <Node pos="r" depth="3" NCoef="0" IVar="5" Cut="4.0781325683593750e+03" cType="1" res="-9.9000000000000000e+01" rms="0.0000000000000000e+00" purity="2.6480847597122192e-01" nType="0">
              <Node pos="l" depth="4" NCoef="0" IVar="14" Cut="9.0487396240234375e+02" cType="0" res="-9.9000000000000000e+01" rms="0.0000000000000000e+00" purity="3.7862211465835571e-01" nType="0">
                <Node pos="l" depth="5" NCoef="0" IVar="-1" Cut="0.0000000000000000e+00" cType="1" res="-9.9000000000000000e+01" rms="0.0000000000000000e+00" purity="5.4898995161056519e-01" nType="1"/>
                <Node pos="r" depth="5" NCoef="0" IVar="-1" Cut="0.0000000000000000e+00" cType="1" res="-9.9000000000000000e+01" rms="0.0000000000000000e+00" purity="1.7337486147880554e-01" nType="-1"/>
              </Node>
              <Node pos="r" depth="4" NCoef="0" IVar="-1" Cut="0.0000000000000000e+00" cType="1" res="-9.9000000000000000e+01" rms="0.0000000000000000e+00" purity="1.0947995632886887e-01" nType="-1"/>
            </Node>
          </Node>
        </Node>
        <Node pos="r" depth="1" NCoef="0" IVar="4" Cut="1.9122067689895630e+00" cType="1" res="-9.9000000000000000e+01" rms="0.0000000000000000e+00" purity="2.1123315393924713e-01" nType="0">
          <Node pos="l" depth="2" NCoef="0" IVar="-1" Cut="0.0000000000000000e+00" cType="1" res="-9.9000000000000000e+01" rms="0.0000000000000000e+00" purity="5.4734730720520020e-01" nType="1"/>
          <Node pos="r" depth="2" NCoef="0" IVar="-1" Cut="1.8254589843750000e+02" cType="0" res="-9.9000000000000000e+01" rms="0.0000000000000000e+00" purity="1.1804641038179398e-01" nType="-1"/>
        </Node>
      </Node>
    </BinaryTree>
    <BinaryTree type="DecisionTree" boostWeight="5.6380762856768873e-01" itree="8">
      <Node pos="s" depth="0" NCoef="0" IVar="6" Cut="4.3194432258605957e+00" cType="1" res="-9.9000000000000000e+01" rms="0.0000000000000000e+00" purity="5.1963829994201660e-01" nType="0">
        <Node pos="l" depth="1" NCoef="0" IVar="4" Cut="3.3078374862670898e+00" cType="1" res="-9.9000000000000000e+01" rms="0.0000000000000000e+00" purity="5.8671170473098755e-01" nType="0">
          <Node pos="l" depth="2" NCoef="0" IVar="14" Cut="1.3575745849609375e+03" cType="0" res="-9.9000000000000000e+01" rms="0.0000000000000000e+00" purity="6.7752808332443237e-01" nType="0">
            <Node pos="l" depth="3" NCoef="0" IVar="3" Cut="5.8904453125000000e+03" cType="0" res="-9.9000000000000000e+01" rms="0.0000000000000000e+00" purity="8.0111998319625854e-01" nType="0">
              <Node pos="l" depth="4" NCoef="0" IVar="-1" Cut="1.5743641853332520e+00" cType="1" res="-9.9000000000000000e+01" rms="0.0000000000000000e+00" purity="9.1712570190429688e-01" nType="1"/>
              <Node pos="r" depth="4" NCoef="0" IVar="17" Cut="9.5610420227050781e+01" cType="0" res="-9.9000000000000000e+01" rms="0.0000000000000000e+00" purity="6.9356244802474976e-01" nType="0">
                <Node pos="l" depth="5" NCoef="0" IVar="-1" Cut="0.0000000000000000e+00" cType="1" res="-9.9000000000000000e+01" rms="0.0000000000000000e+00" purity="8.4629869461059570e-01" nType="1"/>
                <Node pos="r" depth="5" NCoef="0" IVar="8" Cut="1.9245963134765625e+03" cType="0" res="-9.9000000000000000e+01" rms="0.0000000000000000e+00" purity="5.5846357345581055e-01" nType="0">
                  <Node pos="l" depth="6" NCoef="0" IVar="-1" Cut="0.0000000000000000e+00" cType="1" res="-9.9000000000000000e+01" rms="0.0000000000000000e+00" purity="6.3081598281860352e-01" nType="1"/>
                  <Node pos="r" depth="6" NCoef="0" IVar="-1" Cut="0.0000000000000000e+00" cType="1" res="-9.9000000000000000e+01" rms="0.0000000000000000e+00" purity="4.8137134313583374e-01" nType="-1"/>
                </Node>
              </Node>
            </Node>
            <Node pos="r" depth="3" NCoef="0" IVar="0" Cut="1.4242324829101562e+02" cType="0" res="-9.9000000000000000e+01" rms="0.0000000000000000e+00" purity="5.6534093618392944e-01" nType="0">
              <Node pos="l" depth="4" NCoef="0" IVar="-1" Cut="1.3750566244125366e+00" cType="1" res="-9.9000000000000000e+01" rms="0.0000000000000000e+00" purity="7.4331307411193848e-01" nType="1"/>
              <Node pos="r" depth="4" NCoef="0" IVar="11" Cut="1.0361026763916016e+02" cType="1" res="-9.9000000000000000e+01" rms="0.0000000000000000e+00" purity="4.2139533162117004e-01" nType="0">
                <Node pos="l" depth="5" NCoef="0" IVar="10" Cut="7.9677648925781250e+02" cType="0" res="-9.9000000000000000e+01" rms="0.0000000000000000e+00" purity="5.4388314485549927e-01" nType="0">
                  <Node pos="l" depth="6" NCoef="0" IVar="-1" Cut="0.0000000000000000e+00" cType="1" res="-9.9000000000000000e+01" rms="0.0000000000000000e+00" purity="8.3562570810317993e-01" nType="1"/>
                  <Node pos="r" depth="6" NCoef="0" IVar="16" Cut="1.8154489746093750e+03" cType="0" res="-9.9000000000000000e+01" rms="0.0000000000000000e+00" purity="4.0588971972465515e-01" nType="0">
                    <Node pos="l" depth="7" NCoef="0" IVar="-1" Cut="0.0000000000000000e+00" cType="1" res="-9.9000000000000000e+01" rms="0.0000000000000000e+00" purity="5.5019891262054443e-01" nType="1"/>
                    <Node pos="r" depth="7" NCoef="0" IVar="-1" Cut="0.0000000000000000e+00" cType="1" res="-9.9000000000000000e+01" rms="0.0000000000000000e+00" purity="2.5522387027740479e-01" nType="-1"/>
                  </Node>
                </Node>
                <Node pos="r" depth="5" NCoef="0" IVar="-1" Cut="0.0000000000000000e+00" cType="1" res="-9.9000000000000000e+01" rms="0.0000000000000000e+00" purity="1.8252083659172058e-01" nType="-1"/>
              </Node>
            </Node>
          </Node>
          <Node pos="r" depth="2" NCoef="0" IVar="4" Cut="7.4030523300170898e+00" cType="1" res="-9.9000000000000000e+01" rms="0.0000000000000000e+00" purity="4.7773218154907227e-01" nType="0">
            <Node pos="l" depth="3" NCoef="0" IVar="2" Cut="1.0972838401794434e+00" cType="0" res="-9.9000000000000000e+01" rms="0.0000000000000000e+00" purity="5.4061698913574219e-01" nType="0">
              <Node pos="l" depth="4" NCoef="0" IVar="13" Cut="1.1808564758300781e+02" cType="1" res="-9.9000000000000000e+01" rms="0.0000000000000000e+00" purity="6.4701116085052490e-01" nType="0">
                <Node pos="l" depth="5" NCoef="0" IVar="-1" Cut="2.8328006267547607e+00" cType="1" res="-9.9000000000000000e+01" rms="0.0000000000000000e+00" purity="7.5464147329330444e-01" nType="1"/>
                <Node pos="r" depth="5" NCoef="0" IVar="-1" Cut="0.0000000000000000e+00" cType="1" res="-9.9000000000000000e+01" rms="0.0000000000000000e+00" purity="3.0165293812751770e-01" nType="-1"/>
              </Node>
              <Node pos="r" depth="4" NCoef="0" IVar="6" Cut="9.8299509286880493e-01" cType="1" res="-9.9000000000000000e+01" rms="0.0000000000000000e+00" purity="4.3343004584312439e-01" nType="0">
                <Node pos="l" depth="5" NCoef="0" IVar="3" Cut="6.1154638671875000e+03" cType="1" res="-9.9000000000000000e+01" rms="0.0000000000000000e+00" purity="5.8118826150894165e-01" nType="0">
                  <Node pos="l" depth="6" NCoef="0" IVar="-1" Cut="0.0000000000000000e+00" cType="1" res="-9.9000000000000000e+01" rms="0.0000000000000000e+00" purity="7.8463798761367798e-01" nType="1"/>
                  <Node pos="r" depth="6" NCoef="0" IVar="-1" Cut="0.0000000000000000e+00" cType="1" res="-9.9000000000000000e+01" rms="0.0000000000000000e+00" purity="3.9363047480583191e-01" nType="-1"/>
                </Node>
                <Node pos="r" depth="5" NCoef="0" IVar="-1" Cut="0.0000000000000000e+00" cType="1" res="-9.9000000000000000e+01" rms="0.0000000000000000e+00" purity="2.5189131498336792e-01" nType="-1"/>
              </Node>
            </Node>
            <Node pos="r" depth="3" NCoef="0" IVar="-1" Cut="1.2420148925781250e+03" cType="0" res="-9.9000000000000000e+01" rms="0.0000000000000000e+00" purity="3.2298567891120911e-01" nType="-1"/>
          </Node>
        </Node>
        <Node pos="r" depth="1" NCoef="0" IVar="13" Cut="1.9177558898925781e+02" cType="0" res="-9.9000000000000000e+01" rms="0.0000000000000000e+00" purity="2.1358856558799744e-01" nType="0">
          <Node pos="l" depth="2" NCoef="0" IVar="-1" Cut="0.0000000000000000e+00" cType="1" res="-9.9000000000000000e+01" rms="0.0000000000000000e+00" purity="5.2166509628295898e-01" nType="1"/>
          <Node pos="r" depth="2" NCoef="0" IVar="-1" Cut="5.3498978614807129e+00" cType="1" res="-9.9000000000000000e+01" rms="0.0000000000000000e+00" purity="1.2448313087224960e-01" nType="-1"/>
        </Node>
      </Node>
    </BinaryTree>
    <BinaryTree type="DecisionTree" boostWeight="6.4274144502500685e-01" itree="9">
      <Node pos="s" depth="0" NCoef="0" IVar="6" Cut="5.0663070678710938e+00" cType="1" res="-9.9000000000000000e+01" rms="0.0000000000000000e+00" purity="5.3870213031768799e-01" nType="0">
        <Node pos="l" depth="1" NCoef="0" IVar="3" Cut="3.4829980468750000e+03" cType="0" res="-9.9000000000000000e+01" rms="0.0000000000000000e+00" purity="5.9141927957534790e-01" nType="0">
          <Node pos="l" depth="2" NCoef="0" IVar="16" Cut="3.8283549804687500e+03" cType="1" res="-9.9000000000000000e+01" rms="0.0000000000000000e+00" purity="6.2251412868499756e-01" nType="0">
            <Node pos="l" depth="3" NCoef="0" IVar="5" Cut="1.5369282226562500e+04" cType="1" res="-9.9000000000000000e+01" rms="0.0000000000000000e+00" purity="6.4712208509445190e-01" nType="0">
              <Node pos="l" depth="4" NCoef="0" IVar="4" Cut="4.7134184837341309e+00" cType="1" res="-9.9000000000000000e+01" rms="0.0000000000000000e+00" purity="6.6579288244247437e-01" nType="0">
                <Node pos="l" depth="5" NCoef="0" IVar="14" Cut="1.3689495849609375e+03" cType="0" res="-9.9000000000000000e+01" rms="0.0000000000000000e+00" purity="7.1334254741668701e-01" nType="0">
                  <Node pos="l" depth="6" NCoef="0" IVar="15" Cut="2.3591156005859375e+02" cType="1" res="-9.9000000000000000e+01" rms="0.0000000000000000e+00" purity="8.0277878046035767e-01" nType="0">
                    <Node pos="l" depth="7" NCoef="0" IVar="-1" Cut="8.8418218994140625e+02" cType="0" res="-9.9000000000000000e+01" rms="0.0000000000000000e+00" purity="8.9838039875030518e-01" nType="1"/>
                    <Node pos="r" depth="7" NCoef="0" IVar="9" Cut="7.4312512207031250e+02" cType="0" res="-9.9000000000000000e+01" rms="0.0000000000000000e+00" purity="5.9262466430664062e-01" nType="0">
                      <Node pos="l" depth="8" NCoef="0" IVar="-1" Cut="0.0000000000000000e+00" cType="1" res="-9.9000000000000000e+01" rms="0.0000000000000000e+00" purity="8.1343060731887817e-01" nType="1"/>
                      <Node pos="r" depth="8" NCoef="0" IVar="-1" Cut="0.0000000000000000e+00" cType="1" res="-9.9000000000000000e+01" rms="0.0000000000000000e+00" purity="4.2574775218963623e-01" nType="-1"/>
                    </Node>
                  </Node>
                  <Node pos="r" depth="6" NCoef="0" IVar="15" Cut="7.0283264160156250e+01" cType="1" res="-9.9000000000000000e+01" rms="0.0000000000000000e+00" purity="6.2848854064941406e-01" nType="0">
                    <Node pos="l" depth="7" NCoef="0" IVar="-1" Cut="1.8024738769531250e+03" cType="1" res="-9.9000000000000000e+01" rms="0.0000000000000000e+00" purity="7.9068690538406372e-01" nType="1"/>
                    <Node pos="r" depth="7" NCoef="0" IVar="1" Cut="9.4586218261718750e+02" cType="0" res="-9.9000000000000000e+01" rms="0.0000000000000000e+00" purity="4.6107918024063110e-01" nType="0">
                      <Node pos="l" depth="8" NCoef="0" IVar="-1" Cut="0.0000000000000000e+00" cType="1" res="-9.9000000000000000e+01" rms="0.0000000000000000e+00" purity="7.7682077884674072e-01" nType="1"/>
                      <Node pos="r" depth="8" NCoef="0" IVar="-1" Cut="0.0000000000000000e+00" cType="1" res="-9.9000000000000000e+01" rms="0.0000000000000000e+00" purity="2.1063129603862762e-01" nType="-1"/>
                    </Node>
                  </Node>
                </Node>
                <Node pos="r" depth="5" NCoef="0" IVar="11" Cut="6.4823753356933594e+01" cType="0" res="-9.9000000000000000e+01" rms="0.0000000000000000e+00" purity="5.8254855871200562e-01" nType="0">
                  <Node pos="l" depth="6" NCoef="0" IVar="10" Cut="1.9190415039062500e+03" cType="1" res="-9.9000000000000000e+01" rms="0.0000000000000000e+00" purity="7.6894026994705200e-01" nType="0">
                    <Node pos="l" depth="7" NCoef="0" IVar="-1" Cut="0.0000000000000000e+00" cType="1" res="-9.9000000000000000e+01" rms="0.0000000000000000e+00" purity="8.8582116365432739e-01" nType="1"/>
                    <Node pos="r" depth="7" NCoef="0" IVar="-1" Cut="0.0000000000000000e+00" cType="1" res="-9.9000000000000000e+01" rms="0.0000000000000000e+00" purity="4.9779903888702393e-01" nType="-1"/>
                  </Node>
                  <Node pos="r" depth="6" NCoef="0" IVar="16" Cut="1.2388359375000000e+03" cType="0" res="-9.9000000000000000e+01" rms="0.0000000000000000e+00" purity="3.9492395520210266e-01" nType="0">
                    <Node pos="l" depth="7" NCoef="0" IVar="-1" Cut="0.0000000000000000e+00" cType="1" res="-9.9000000000000000e+01" rms="0.0000000000000000e+00" purity="6.1099046468734741e-01" nType="1"/>
                    <Node pos="r" depth="7" NCoef="0" IVar="-1" Cut="0.0000000000000000e+00" cType="1" res="-9.9000000000000000e+01" rms="0.0000000000000000e+00" purity="1.1126486957073212e-01" nType="-1"/>
                  </Node>
                </Node>
              </Node>
              <Node pos="r" depth="4" NCoef="0" IVar="-1" Cut="0.0000000000000000e+00" cType="1" res="-9.9000000000000000e+01" rms="0.0000000000000000e+00" purity="3.4884074330329895e-01" nType="-1"/>
            </Node>
            <Node pos="r" depth="3" NCoef="0" IVar="7" Cut="1.4459412109375000e+04" cType="0" res="-9.9000000000000000e+01" rms="0.0000000000000000e+00" purity="3.7862780690193176e-01" nType="0">
              <Node pos="l" depth="4" NCoef="0" IVar="-1" Cut="0.0000000000000000e+00" cType="1" res="-9.9000000000000000e+01" rms="0.0000000000000000e+00" purity="5.6925445795059204e-01" nType="1"/>
              <Node pos="r" depth="4" NCoef="0" IVar="-1" Cut="0.0000000000000000e+00" cType="1" res="-9.9000000000000000e+01" rms="0.0000000000000000e+00" purity="2.3003843426704407e-01" nType="-1"/>
            </Node>
          </Node>
          <Node pos="r" depth="2" NCoef="0" IVar="0" Cut="2.7144879150390625e+02" cType="0" res="-9.9000000000000000e+01" rms="0.0000000000000000e+00" purity="4.3061873316764832e-01" nType="0">
            <Node pos="l" depth="3" NCoef="0" IVar="-1" Cut="0.0000000000000000e+00" cType="1" res="-9.9000000000000000e+01" rms="0.0000000000000000e+00" purity="8.0678820610046387e-01" nType="1"/>
            <Node pos="r" depth="3" NCoef="0" IVar="14" Cut="1.2416746826171875e+03" cType="0" res="-9.9000000000000000e+01" rms="0.0000000000000000e+00" purity="3.2281893491744995e-01" nType="0">
              <Node pos="l" depth="4" NCoef="0" IVar="-1" Cut="0.0000000000000000e+00" cType="1" res="-9.9000000000000000e+01" rms="0.0000000000000000e+00" purity="6.8029928207397461e-01" nType="1"/>
              <Node pos="r" depth="4" NCoef="0" IVar="-1" Cut="1.0303510284423828e+02" cType="0" res="-9.9000000000000000e+01" rms="0.0000000000000000e+00" purity="2.1486844122409821e-01" nType="-1"/>
            </Node>
          </Node>
        </Node>
        <Node pos="r" depth="1" NCoef="0" IVar="13" Cut="2.2552423095703125e+02" cType="0" res="-9.9000000000000000e+01" rms="0.0000000000000000e+00" purity="2.5802844762802124e-01" nType="0">
          <Node pos="l" depth="2" NCoef="0" IVar="-1" Cut="0.0000000000000000e+00" cType="1" res="-9.9000000000000000e+01" rms="0.0000000000000000e+00" purity="7.5376003980636597e-01" nType="1"/>
          <Node pos="r" depth="2" NCoef="0" IVar="-1" Cut="1.2705994415283203e+02" cType="0" res="-9.9000000000000000e+01" rms="0.0000000000000000e+00" purity="1.1886992305517197e-01" nType="-1"/>
        </Node>
      </Node>
    </BinaryTree>
    <BinaryTree type="DecisionTree" boostWeight="5.1251525060683145e-01" itree="10">
      <Node pos="s" depth="0" NCoef="0" IVar="4" Cut="1.4279302358627319e+00" cType="1" res="-9.9000000000000000e+01" rms="0.0000000000000000e+00" purity="5.2937728166580200e-01" nType="0">
        <Node pos="l" depth="1" NCoef="0" IVar="12" Cut="2.3253842773437500e+03" cType="0" res="-9.9000000000000000e+01" rms="0.0000000000000000e+00" purity="7.3061531782150269e-01" nType="0">
          <Node pos="l" depth="2" NCoef="0" IVar="-1" Cut="0.0000000000000000e+00" cType="1" res="-9.9000000000000000e+01" rms="0.0000000000000000e+00" purity="1.0000000000000000e+00" nType="1"/>
          <Node pos="r" depth="2" NCoef="0" IVar="2" Cut="5.7001018524169922e-01" cType="1" res="-9.9000000000000000e+01" rms="0.0000000000000000e+00" purity="6.9210666418075562e-01" nType="0">
            <Node pos="l" depth="3" NCoef="0" IVar="-1" Cut="0.0000000000000000e+00" cType="1" res="-9.9000000000000000e+01" rms="0.0000000000000000e+00" purity="9.7379654645919800e-01" nType="1"/>
            <Node pos="r" depth="3" NCoef="0" IVar="17" Cut="8.3352554321289062e+01" cType="0" res="-9.9000000000000000e+01" rms="0.0000000000000000e+00" purity="6.3934737443923950e-01" nType="0">
              <Node pos="l" depth="4" NCoef="0" IVar="17" Cut="1.5820225524902344e+02" cType="1" res="-9.9000000000000000e+01" rms="0.0000000000000000e+00" purity="7.2562974691390991e-01" nType="0">
                <Node pos="l" depth="5" NCoef="0" IVar="-1" Cut="0.0000000000000000e+00" cType="1" res="-9.9000000000000000e+01" rms="0.0000000000000000e+00" purity="9.6072357892990112e-01" nType="1"/>
                <Node pos="r" depth="5" NCoef="0" IVar="11" Cut="6.8902534484863281e+01" cType="0" res="-9.9000000000000000e+01" rms="0.0000000000000000e+00" purity="6.2960100173950195e-01" nType="0">
                  <Node pos="l" depth="6" NCoef="0" IVar="-1" Cut="0.0000000000000000e+00" cType="1" res="-9.9000000000000000e+01" rms="0.0000000000000000e+00" purity="7.9375809431076050e-01" nType="1"/>
                  <Node pos="r" depth="6" NCoef="0" IVar="-1" Cut="0.0000000000000000e+00" cType="1" res="-9.9000000000000000e+01" rms="0.0000000000000000e+00" purity="4.7545108199119568e-01" nType="-1"/>
                </Node>
              </Node>
              <Node pos="r" depth="4" NCoef="0" IVar="17" Cut="5.6792354583740234e+01" cType="1" res="-9.9000000000000000e+01" rms="0.0000000000000000e+00" purity="5.5517387390136719e-01" nType="0">
                <Node pos="l" depth="5" NCoef="0" IVar="-1" Cut="0.0000000000000000e+00" cType="1" res="-9.9000000000000000e+01" rms="0.0000000000000000e+00" purity="7.7317422628402710e-01" nType="1"/>
                <Node pos="r" depth="5" NCoef="0" IVar="-1" Cut="0.0000000000000000e+00" cType="1" res="-9.9000000000000000e+01" rms="0.0000000000000000e+00" purity="3.4182095527648926e-01" nType="-1"/>
              </Node>
            </Node>
          </Node>
        </Node>
        <Node pos="r" depth="1" NCoef="0" IVar="6" Cut="2.2061023712158203e+00" cType="1" res="-9.9000000000000000e+01" rms="0.0000000000000000e+00" purity="4.6052002906799316e-01" nType="0">
          <Node pos="l" depth="2" NCoef="0" IVar="7" Cut="5.5196840820312500e+03" cType="0" res="-9.9000000000000000e+01" rms="0.0000000000000000e+00" purity="5.4769408702850342e-01" nType="0">
            <Node pos="l" depth="3" NCoef="0" IVar="17" Cut="3.4117160034179688e+02" cType="1" res="-9.9000000000000000e+01" rms="0.0000000000000000e+00" purity="6.1959826946258545e-01" nType="0">
              <Node pos="l" depth="4" NCoef="0" IVar="17" Cut="3.7135070800781250e+01" cType="0" res="-9.9000000000000000e+01" rms="0.0000000000000000e+00" purity="6.5448820590972900e-01" nType="0">
                <Node pos="l" depth="5" NCoef="0" IVar="-1" Cut="2.6399970054626465e+00" cType="0" res="-9.9000000000000000e+01" rms="0.0000000000000000e+00" purity="7.2230362892150879e-01" nType="1"/>
                <Node pos="r" depth="5" NCoef="0" IVar="15" Cut="6.1799686431884766e+01" cType="1" res="-9.9000000000000000e+01" rms="0.0000000000000000e+00" purity="5.3045237064361572e-01" nType="0">
                  <Node pos="l" depth="6" NCoef="0" IVar="-1" Cut="0.0000000000000000e+00" cType="1" res="-9.9000000000000000e+01" rms="0.0000000000000000e+00" purity="7.0593088865280151e-01" nType="1"/>
                  <Node pos="r" depth="6" NCoef="0" IVar="-1" Cut="1.3467270507812500e+03" cType="1" res="-9.9000000000000000e+01" rms="0.0000000000000000e+00" purity="3.6692520976066589e-01" nType="-1"/>
                </Node>
              </Node>
              <Node pos="r" depth="4" NCoef="0" IVar="-1" Cut="0.0000000000000000e+00" cType="1" res="-9.9000000000000000e+01" rms="0.0000000000000000e+00" purity="4.0301111340522766e-01" nType="-1"/>
            </Node>
            <Node pos="r" depth="3" NCoef="0" IVar="-1" Cut="2.9285633087158203e+01" cType="0" res="-9.9000000000000000e+01" rms="0.0000000000000000e+00" purity="2.2450673580169678e-01" nType="-1"/>
          </Node>
          <Node pos="r" depth="2" NCoef="0" IVar="4" Cut="7.8783354759216309e+00" cType="1" res="-9.9000000000000000e+01" rms="0.0000000000000000e+00" purity="3.3443012833595276e-01" nType="0">
            <Node pos="l" depth="3" NCoef="0" IVar="9" Cut="9.2906726074218750e+02" cType="0" res="-9.9000000000000000e+01" rms="0.0000000000000000e+00" purity="3.8138583302497864e-01" nType="0">
              <Node pos="l" depth="4" NCoef="0" IVar="-1" Cut="0.0000000000000000e+00" cType="1" res="-9.9000000000000000e+01" rms="0.0000000000000000e+00" purity="6.0292458534240723e-01" nType="1"/>
              <Node pos="r" depth="4" NCoef="0" IVar="14" Cut="1.5810664062500000e+03" cType="0" res="-9.9000000000000000e+01" rms="0.0000000000000000e+00" purity="3.2492285966873169e-01" nType="0">
                <Node pos="l" depth="5" NCoef="0" IVar="9" Cut="1.1715894317626953e+02" cType="0" res="-9.9000000000000000e+01" rms="0.0000000000000000e+00" purity="4.4511917233467102e-01" nType="0">
                  <Node pos="l" depth="6" NCoef="0" IVar="-1" Cut="0.0000000000000000e+00" cType="1" res="-9.9000000000000000e+01" rms="0.0000000000000000e+00" purity="5.7041466236114502e-01" nType="1"/>
                  <Node pos="r" depth="6" NCoef="0" IVar="-1" Cut="0.0000000000000000e+00" cType="1" res="-9.9000000000000000e+01" rms="0.0000000000000000e+00" purity="1.9701720774173737e-01" nType="-1"/>
                </Node>
                <Node pos="r" depth="5" NCoef="0" IVar="9" Cut="2.2399064636230469e+02" cType="1" res="-9.9000000000000000e+01" rms="0.0000000000000000e+00" purity="2.3143392801284790e-01" nType="0">
                  <Node pos="l" depth="6" NCoef="0" IVar="16" Cut="1.3840734863281250e+03" cType="0" res="-9.9000000000000000e+01" rms="0.0000000000000000e+00" purity="3.5311639308929443e-01" nType="0">
                    <Node pos="l" depth="7" NCoef="0" IVar="-1" Cut="0.0000000000000000e+00" cType="1" res="-9.9000000000000000e+01" rms="0.0000000000000000e+00" purity="5.1582646369934082e-01" nType="1"/>
                    <Node pos="r" depth="7" NCoef="0" IVar="-1" Cut="0.0000000000000000e+00" cType="1" res="-9.9000000000000000e+01" rms="0.0000000000000000e+00" purity="1.3443432748317719e-01" nType="-1"/>
                  </Node>
                  <Node pos="r" depth="6" NCoef="0" IVar="-1" Cut="0.0000000000000000e+00" cType="1" res="-9.9000000000000000e+01" rms="0.0000000000000000e+00" purity="6.8294234573841095e-02" nType="-1"/>
                </Node>
              </Node>
            </Node>
            <Node pos="r" depth="3" NCoef="0" IVar="-1" Cut="8.8974815368652344e+01" cType="0" res="-9.9000000000000000e+01" rms="0.0000000000000000e+00" purity="1.1327521502971649e-01" nType="-1"/>
          </Node>
        </Node>
      </Node>
    </BinaryTree>
    <BinaryTree type="DecisionTree" boostWeight="5.5397544132548571e-01" itree="11">
      <Node pos="s" depth="0" NCoef="0" IVar="6" Cut="2.1616399288177490e+00" cType="1" res="-9.9000000000000000e+01" rms="0.0000000000000000e+00" purity="5.2414214611053467e-01" nType="0">
        <Node pos="l" depth="1" NCoef="0" IVar="9" Cut="3.0929763793945312e+02" cType="0" res="-9.9000000000000000e+01" rms="0.0000000000000000e+00" purity="6.2957018613815308e-01" nType="0">
          <Node pos="l" depth="2" NCoef="0" IVar="16" Cut="1.3309447021484375e+03" cType="1" res="-9.9000000000000000e+01" rms="0.0000000000000000e+00" purity="7.2096389532089233e-01" nType="0">
            <Node pos="l" depth="3" NCoef="0" IVar="-1" Cut="6.1313116455078125e+02" cType="0" res="-9.9000000000000000e+01" rms="0.0000000000000000e+00" purity="8.7407207489013672e-01" nType="1"/>
            <Node pos="r" depth="3" NCoef="0" IVar="10" Cut="1.6074804687500000e+03" cType="0" res="-9.9000000000000000e+01" rms="0.0000000000000000e+00" purity="6.0284864902496338e-01" nType="0">
              <Node pos="l" depth="4" NCoef="0" IVar="-1" Cut="0.0000000000000000e+00" cType="1" res="-9.9000000000000000e+01" rms="0.0000000000000000e+00" purity="8.0513823032379150e-01" nType="1"/>
              <Node pos="r" depth="4" NCoef="0" IVar="12" Cut="2.1235729980468750e+03" cType="1" res="-9.9000000000000000e+01" rms="0.0000000000000000e+00" purity="5.1729834079742432e-01" nType="0">
                <Node pos="l" depth="5" NCoef="0" IVar="-1" Cut="1.6771643066406250e+02" cType="1" res="-9.9000000000000000e+01" rms="0.0000000000000000e+00" purity="6.6311675310134888e-01" nType="1"/>
                <Node pos="r" depth="5" NCoef="0" IVar="-1" Cut="0.0000000000000000e+00" cType="1" res="-9.9000000000000000e+01" rms="0.0000000000000000e+00" purity="2.4034711718559265e-01" nType="-1"/>
              </Node>
            </Node>
          </Node>
          <Node pos="r" depth="2" NCoef="0" IVar="15" Cut="1.5850180053710938e+02" cType="1" res="-9.9000000000000000e+01" rms="0.0000000000000000e+00" purity="5.3703516721725464e-01" nType="0">
            <Node pos="l" depth="3" NCoef="0" IVar="15" Cut="4.7626720428466797e+01" cType="0" res="-9.9000000000000000e+01" rms="0.0000000000000000e+00" purity="6.0560935735702515e-01" nType="0">
              <Node pos="l" depth="4" NCoef="0" IVar="-1" Cut="2.1137258529663086e+01" cType="0" res="-9.9000000000000000e+01" rms="0.0000000000000000e+00" purity="8.1273686885833740e-01" nType="1"/>
              <Node pos="r" depth="4" NCoef="0" IVar="2" Cut="1.0882006883621216e+00" cType="1" res="-9.9000000000000000e+01" rms="0.0000000000000000e+00" purity="4.6078050136566162e-01" nType="0">
                <Node pos="l" depth="5" NCoef="0" IVar="5" Cut="5.8703100585937500e+02" cType="1" res="-9.9000000000000000e+01" rms="0.0000000000000000e+00" purity="6.1273944377899170e-01" nType="0">
                  <Node pos="l" depth="6" NCoef="0" IVar="-1" Cut="0.0000000000000000e+00" cType="1" res="-9.9000000000000000e+01" rms="0.0000000000000000e+00" purity="7.7686023712158203e-01" nType="1"/>
                  <Node pos="r" depth="6" NCoef="0" IVar="-1" Cut="0.0000000000000000e+00" cType="1" res="-9.9000000000000000e+01" rms="0.0000000000000000e+00" purity="4.0859627723693848e-01" nType="-1"/>
                </Node>
                <Node pos="r" depth="5" NCoef="0" IVar="-1" Cut="0.0000000000000000e+00" cType="1" res="-9.9000000000000000e+01" rms="0.0000000000000000e+00" purity="2.3066401481628418e-01" nType="-1"/>
              </Node>
            </Node>
            <Node pos="r" depth="3" NCoef="0" IVar="16" Cut="9.5344042968750000e+02" cType="0" res="-9.9000000000000000e+01" rms="0.0000000000000000e+00" purity="3.5728386044502258e-01" nType="0">
              <Node pos="l" depth="4" NCoef="0" IVar="-1" Cut="0.0000000000000000e+00" cType="1" res="-9.9000000000000000e+01" rms="0.0000000000000000e+00" purity="6.1009323596954346e-01" nType="1"/>
              <Node pos="r" depth="4" NCoef="0" IVar="-1" Cut="0.0000000000000000e+00" cType="1" res="-9.9000000000000000e+01" rms="0.0000000000000000e+00" purity="2.2323711216449738e-01" nType="-1"/>
            </Node>
          </Node>
        </Node>
        <Node pos="r" depth="1" NCoef="0" IVar="4" Cut="9.7327482700347900e-01" cType="1" res="-9.9000000000000000e+01" rms="0.0000000000000000e+00" purity="3.6979830265045166e-01" nType="0">
          <Node pos="l" depth="2" NCoef="0" IVar="-1" Cut="3.8174137473106384e-01" cType="1" res="-9.9000000000000000e+01" rms="0.0000000000000000e+00" purity="6.8912857770919800e-01" nType="1"/>
          <Node pos="r" depth="2" NCoef="0" IVar="12" Cut="1.7843021240234375e+03" cType="0" res="-9.9000000000000000e+01" rms="0.0000000000000000e+00" purity="3.1857803463935852e-01" nType="0">
            <Node pos="l" depth="3" NCoef="0" IVar="7" Cut="1.4170979492187500e+04" cType="1" res="-9.9000000000000000e+01" rms="0.0000000000000000e+00" purity="4.9791777133941650e-01" nType="0">
              <Node pos="l" depth="4" NCoef="0" IVar="-1" Cut="0.0000000000000000e+00" cType="1" res="-9.9000000000000000e+01" rms="0.0000000000000000e+00" purity="7.0793485641479492e-01" nType="1"/>
              <Node pos="r" depth="4" NCoef="0" IVar="-1" Cut="0.0000000000000000e+00" cType="1" res="-9.9000000000000000e+01" rms="0.0000000000000000e+00" purity="3.4308233857154846e-01" nType="-1"/>
            </Node>
            <Node pos="r" depth="3" NCoef="0" IVar="1" Cut="6.8189630126953125e+02" cType="0" res="-9.9000000000000000e+01" rms="0.0000000000000000e+00" purity="2.6114639639854431e-01" nType="0">
              <Node pos="l" depth="4" NCoef="0" IVar="2" Cut="3.2575056552886963e+00" cType="0" res="-9.9000000000000000e+01" rms="0.0000000000000000e+00" purity="3.6765083670616150e-01" nType="0">
                <Node pos="l" depth="5" NCoef="0" IVar="-1" Cut="0.0000000000000000e+00" cType="1" res="-9.9000000000000000e+01" rms="0.0000000000000000e+00" purity="5.1221287250518799e-01" nType="1"/>
                <Node pos="r" depth="5" NCoef="0" IVar="-1" Cut="0.0000000000000000e+00" cType="1" res="-9.9000000000000000e+01" rms="0.0000000000000000e+00" purity="1.9297797977924347e-01" nType="-1"/>
              </Node>
              <Node pos="r" depth="4" NCoef="0" IVar="5" Cut="8.1898449707031250e+02" cType="0" res="-9.9000000000000000e+01" rms="0.0000000000000000e+00" purity="1.9494342803955078e-01" nType="0">
                <Node pos="l" depth="5" NCoef="0" IVar="11" Cut="2.8375715255737305e+01" cType="0" res="-9.9000000000000000e+01" rms="0.0000000000000000e+00" purity="3.6683005094528198e-01" nType="0">
                  <Node pos="l" depth="6" NCoef="0" IVar="-1" Cut="0.0000000000000000e+00" cType="1" res="-9.9000000000000000e+01" rms="0.0000000000000000e+00" purity="5.0653868913650513e-01" nType="1"/>
                  <Node pos="r" depth="6" NCoef="0" IVar="-1" Cut="0.0000000000000000e+00" cType="1" res="-9.9000000000000000e+01" rms="0.0000000000000000e+00" purity="1.6509540379047394e-01" nType="-1"/>
                </Node>
                <Node pos="r" depth="5" NCoef="0" IVar="-1" Cut="3.1237266540527344e+01" cType="0" res="-9.9000000000000000e+01" rms="0.0000000000000000e+00" purity="7.3024734854698181e-02" nType="-1"/>
              </Node>
            </Node>
          </Node>
        </Node>
      </Node>
    </BinaryTree>
    <BinaryTree type="DecisionTree" boostWeight="6.1148093271565729e-01" itree="12">
      <Node pos="s" depth="0" NCoef="0" IVar="6" Cut="5.7455887794494629e+00" cType="1" res="-9.9000000000000000e+01" rms="0.0000000000000000e+00" purity="5.1604640483856201e-01" nType="0">
        <Node pos="l" depth="1" NCoef="0" IVar="0" Cut="3.6309811401367188e+02" cType="1" res="-9.9000000000000000e+01" rms="0.0000000000000000e+00" purity="5.6767439842224121e-01" nType="0">
          <Node pos="l" depth="2" NCoef="0" IVar="14" Cut="1.0888593750000000e+03" cType="0" res="-9.9000000000000000e+01" rms="0.0000000000000000e+00" purity="6.1536771059036255e-01" nType="0">
            <Node pos="l" depth="3" NCoef="0" IVar="11" Cut="8.8210723876953125e+01" cType="0" res="-9.9000000000000000e+01" rms="0.0000000000000000e+00" purity="6.9278663396835327e-01" nType="0">
              <Node pos="l" depth="4" NCoef="0" IVar="-1" Cut="2.0037312507629395e+00" cType="1" res="-9.9000000000000000e+01" rms="0.0000000000000000e+00" purity="8.8970005512237549e-01" nType="1"/>
              <Node pos="r" depth="4" NCoef="0" IVar="4" Cut="9.5142406225204468e-01" cType="1" res="-9.9000000000000000e+01" rms="0.0000000000000000e+00" purity="6.1097311973571777e-01" nType="0">
                <Node pos="l" depth="5" NCoef="0" IVar="-1" Cut="0.0000000000000000e+00" cType="1" res="-9.9000000000000000e+01" rms="0.0000000000000000e+00" purity="9.6418374776840210e-01" nType="1"/>
                <Node pos="r" depth="5" NCoef="0" IVar="16" Cut="2.5112160644531250e+03" cType="1" res="-9.9000000000000000e+01" rms="0.0000000000000000e+00" purity="5.5033695697784424e-01" nType="0">
                  <Node pos="l" depth="6" NCoef="0" IVar="17" Cut="8.0041542053222656e+01" cType="0" res="-9.9000000000000000e+01" rms="0.0000000000000000e+00" purity="6.0739499330520630e-01" nType="0">
                    <Node pos="l" depth="7" NCoef="0" IVar="-1" Cut="1.0710803270339966e+00" cType="0" res="-9.9000000000000000e+01" rms="0.0000000000000000e+00" purity="8.4689199924468994e-01" nType="1"/>
                    <Node pos="r" depth="7" NCoef="0" IVar="8" Cut="3.2678593750000000e+03" cType="1" res="-9.9000000000000000e+01" rms="0.0000000000000000e+00" purity="5.0260573625564575e-01" nType="0">
                      <Node pos="l" depth="8" NCoef="0" IVar="3" Cut="5.6121606445312500e+03" cType="0" res="-9.9000000000000000e+01" rms="0.0000000000000000e+00" purity="6.3148742914199829e-01" nType="0">
                        <Node pos="l" depth="9" NCoef="0" IVar="-1" Cut="0.0000000000000000e+00" cType="1" res="-9.9000000000000000e+01" rms="0.0000000000000000e+00" purity="8.7990200519561768e-01" nType="1"/>
                        <Node pos="r" depth="9" NCoef="0" IVar="-1" Cut="0.0000000000000000e+00" cType="1" res="-9.9000000000000000e+01" rms="0.0000000000000000e+00" purity="4.5520374178886414e-01" nType="-1"/>
                      </Node>
                      <Node pos="r" depth="8" NCoef="0" IVar="-1" Cut="0.0000000000000000e+00" cType="1" res="-9.9000000000000000e+01" rms="0.0000000000000000e+00" purity="2.7536380290985107e-01" nType="-1"/>
                    </Node>
                  </Node>
                  <Node pos="r" depth="6" NCoef="0" IVar="-1" Cut="0.0000000000000000e+00" cType="1" res="-9.9000000000000000e+01" rms="0.0000000000000000e+00" purity="3.2245543599128723e-01" nType="-1"/>
                </Node>
              </Node>
            </Node>
            <Node pos="r" depth="3" NCoef="0" IVar="0" Cut="1.2405754852294922e+02" cType="0" res="-9.9000000000000000e+01" rms="0.0000000000000000e+00" purity="4.9134066700935364e-01" nType="0">
              <Node pos="l" depth="4" NCoef="0" IVar="9" Cut="3.2680505371093750e+02" cType="1" res="-9.9000000000000000e+01" rms="0.0000000000000000e+00" purity="5.9222418069839478e-01" nType="0">
                <Node pos="l" depth="5" NCoef="0" IVar="-1" Cut="8.9454941406250000e+03" cType="0" res="-9.9000000000000000e+01" rms="0.0000000000000000e+00" purity="7.5707024335861206e-01" nType="1"/>
                <Node pos="r" depth="5" NCoef="0" IVar="17" Cut="1.9977996826171875e+02" cType="1" res="-9.9000000000000000e+01" rms="0.0000000000000000e+00" purity="4.4442135095596313e-01" nType="0">
                  <Node pos="l" depth="6" NCoef="0" IVar="-1" Cut="0.0000000000000000e+00" cType="1" res="-9.9000000000000000e+01" rms="0.0000000000000000e+00" purity="6.5657234191894531e-01" nType="1"/>
                  <Node pos="r" depth="6" NCoef="0" IVar="-1" Cut="0.0000000000000000e+00" cType="1" res="-9.9000000000000000e+01" rms="0.0000000000000000e+00" purity="2.7992665767669678e-01" nType="-1"/>
                </Node>
              </Node>
              <Node pos="r" depth="4" NCoef="0" IVar="4" Cut="3.7747380733489990e+00" cType="1" res="-9.9000000000000000e+01" rms="0.0000000000000000e+00" purity="3.8860929012298584e-01" nType="0">
                <Node pos="l" depth="5" NCoef="0" IVar="8" Cut="1.5886072998046875e+03" cType="0" res="-9.9000000000000000e+01" rms="0.0000000000000000e+00" purity="5.7546252012252808e-01" nType="0">
                  <Node pos="l" depth="6" NCoef="0" IVar="-1" Cut="0.0000000000000000e+00" cType="1" res="-9.9000000000000000e+01" rms="0.0000000000000000e+00" purity="8.1703543663024902e-01" nType="1"/>
                  <Node pos="r" depth="6" NCoef="0" IVar="-1" Cut="0.0000000000000000e+00" cType="1" res="-9.9000000000000000e+01" rms="0.0000000000000000e+00" purity="3.2551676034927368e-01" nType="-1"/>
                </Node>
                <Node pos="r" depth="5" NCoef="0" IVar="-1" Cut="1.7201133728027344e+01" cType="0" res="-9.9000000000000000e+01" rms="0.0000000000000000e+00" purity="2.1884731948375702e-01" nType="-1"/>
              </Node>
            </Node>
          </Node>
          <Node pos="r" depth="2" NCoef="0" IVar="12" Cut="1.4492951660156250e+03" cType="0" res="-9.9000000000000000e+01" rms="0.0000000000000000e+00" purity="3.7192991375923157e-01" nType="0">
            <Node pos="l" depth="3" NCoef="0" IVar="-1" Cut="0.0000000000000000e+00" cType="1" res="-9.9000000000000000e+01" rms="0.0000000000000000e+00" purity="6.2180393934249878e-01" nType="1"/>
            <Node pos="r" depth="3" NCoef="0" IVar="15" Cut="2.1737620544433594e+02" cType="1" res="-9.9000000000000000e+01" rms="0.0000000000000000e+00" purity="2.6334208250045776e-01" nType="0">
              <Node pos="l" depth="4" NCoef="0" IVar="-1" Cut="0.0000000000000000e+00" cType="1" res="-9.9000000000000000e+01" rms="0.0000000000000000e+00" purity="5.0936329364776611e-01" nType="1"/>
              <Node pos="r" depth="4" NCoef="0" IVar="-1" Cut="2.9072656250000000e+03" cType="0" res="-9.9000000000000000e+01" rms="0.0000000000000000e+00" purity="1.6831177473068237e-01" nType="-1"/>
            </Node>
          </Node>
        </Node>
        <Node pos="r" depth="1" NCoef="0" IVar="-1" Cut="1.5079189453125000e+03" cType="0" res="-9.9000000000000000e+01" rms="0.0000000000000000e+00" purity="1.7615139484405518e-01" nType="-1"/>
      </Node>
    </BinaryTree>
    <BinaryTree type="DecisionTree" boostWeight="5.2380475755864153e-01" itree="13">
      <Node pos="s" depth="0" NCoef="0" IVar="4" Cut="3.7812786102294922e+00" cType="1" res="-9.9000000000000000e+01" rms="0.0000000000000000e+00" purity="5.2177369594573975e-01" nType="0">
        <Node pos="l" depth="1" NCoef="0" IVar="2" Cut="2.3722984790802002e+00" cType="1" res="-9.9000000000000000e+01" rms="0.0000000000000000e+00" purity="6.0058689117431641e-01" nType="0">
          <Node pos="l" depth="2" NCoef="0" IVar="7" Cut="6.2585615234375000e+03" cType="0" res="-9.9000000000000000e+01" rms="0.0000000000000000e+00" purity="6.9107264280319214e-01" nType="0">
            <Node pos="l" depth="3" NCoef="0" IVar="9" Cut="1.9074614257812500e+03" cType="1" res="-9.9000000000000000e+01" rms="0.0000000000000000e+00" purity="7.6193863153457642e-01" nType="0">
              <Node pos="l" depth="4" NCoef="0" IVar="-1" Cut="5.5746685791015625e+02" cType="0" res="-9.9000000000000000e+01" rms="0.0000000000000000e+00" purity="7.9214543104171753e-01" nType="1"/>
              <Node pos="r" depth="4" NCoef="0" IVar="-1" Cut="0.0000000000000000e+00" cType="1" res="-9.9000000000000000e+01" rms="0.0000000000000000e+00" purity="4.9008935689926147e-01" nType="-1"/>
            </Node>
            <Node pos="r" depth="3" NCoef="0" IVar="14" Cut="6.8622180175781250e+02" cType="0" res="-9.9000000000000000e+01" rms="0.0000000000000000e+00" purity="5.3367990255355835e-01" nType="0">
              <Node pos="l" depth="4" NCoef="0" IVar="-1" Cut="5.8577877044677734e+01" cType="1" res="-9.9000000000000000e+01" rms="0.0000000000000000e+00" purity="7.1276098489761353e-01" nType="1"/>
              <Node pos="r" depth="4" NCoef="0" IVar="-1" Cut="0.0000000000000000e+00" cType="1" res="-9.9000000000000000e+01" rms="0.0000000000000000e+00" purity="3.4850037097930908e-01" nType="-1"/>
            </Node>
          </Node>
          <Node pos="r" depth="2" NCoef="0" IVar="4" Cut="1.0810338258743286e+00" cType="1" res="-9.9000000000000000e+01" rms="0.0000000000000000e+00" purity="4.4255402684211731e-01" nType="0">
            <Node pos="l" depth="3" NCoef="0" IVar="-1" Cut="6.7293518066406250e+01" cType="0" res="-9.9000000000000000e+01" rms="0.0000000000000000e+00" purity="7.1382939815521240e-01" nType="1"/>
            <Node pos="r" depth="3" NCoef="0" IVar="3" Cut="3.9496154785156250e+03" cType="0" res="-9.9000000000000000e+01" rms="0.0000000000000000e+00" purity="3.1883507966995239e-01" nType="0">
              <Node pos="l" depth="4" NCoef="0" IVar="2" Cut="4.1925196647644043e+00" cType="0" res="-9.9000000000000000e+01" rms="0.0000000000000000e+00" purity="3.6529919505119324e-01" nType="0">
                <Node pos="l" depth="5" NCoef="0" IVar="-1" Cut="0.0000000000000000e+00" cType="1" res="-9.9000000000000000e+01" rms="0.0000000000000000e+00" purity="5.0827085971832275e-01" nType="1"/>
                <Node pos="r" depth="5" NCoef="0" IVar="-1" Cut="0.0000000000000000e+00" cType="1" res="-9.9000000000000000e+01" rms="0.0000000000000000e+00" purity="2.9423677921295166e-01" nType="-1"/>
              </Node>
              <Node pos="r" depth="4" NCoef="0" IVar="-1" Cut="0.0000000000000000e+00" cType="1" res="-9.9000000000000000e+01" rms="0.0000000000000000e+00" purity="1.0376276820898056e-01" nType="-1"/>
            </Node>
          </Node>
        </Node>
        <Node pos="r" depth="1" NCoef="0" IVar="14" Cut="3.2303393554687500e+03" cType="0" res="-9.9000000000000000e+01" rms="0.0000000000000000e+00" purity="4.1109299659729004e-01" nType="0">
          <Node pos="l" depth="2" NCoef="0" IVar="-1" Cut="0.0000000000000000e+00" cType="1" res="-9.9000000000000000e+01" rms="0.0000000000000000e+00" purity="8.3173340559005737e-01" nType="1"/>
          <Node pos="r" depth="2" NCoef="0" IVar="15" Cut="2.5346990966796875e+02" cType="0" res="-9.9000000000000000e+01" rms="0.0000000000000000e+00" purity="3.7333542108535767e-01" nType="0">
            <Node pos="l" depth="3" NCoef="0" IVar="3" Cut="4.8150317382812500e+03" cType="0" res="-9.9000000000000000e+01" rms="0.0000000000000000e+00" purity="5.7976400852203369e-01" nType="0">
              <Node pos="l" depth="4" NCoef="0" IVar="-1" Cut="0.0000000000000000e+00" cType="1" res="-9.9000000000000000e+01" rms="0.0000000000000000e+00" purity="9.2063009738922119e-01" nType="1"/>
              <Node pos="r" depth="4" NCoef="0" IVar="-1" Cut="0.0000000000000000e+00" cType="1" res="-9.9000000000000000e+01" rms="0.0000000000000000e+00" purity="2.2424215078353882e-01" nType="-1"/>
            </Node>
            <Node pos="r" depth="3" NCoef="0" IVar="4" Cut="8.1749334335327148e+00" cType="1" res="-9.9000000000000000e+01" rms="0.0000000000000000e+00" purity="3.3475518226623535e-01" nType="0">
              <Node pos="l" depth="4" NCoef="0" IVar="2" Cut="5.0012892484664917e-01" cType="0" res="-9.9000000000000000e+01" rms="0.0000000000000000e+00" purity="3.6704400181770325e-01" nType="0">
                <Node pos="l" depth="5" NCoef="0" IVar="16" Cut="8.4153967285156250e+02" cType="0" res="-9.9000000000000000e+01" rms="0.0000000000000000e+00" purity="4.0793967247009277e-01" nType="0">
                  <Node pos="l" depth="6" NCoef="0" IVar="15" Cut="6.3297084808349609e+01" cType="0" res="-9.9000000000000000e+01" rms="0.0000000000000000e+00" purity="4.7790554165840149e-01" nType="0">
                    <Node pos="l" depth="7" NCoef="0" IVar="-1" Cut="0.0000000000000000e+00" cType="1" res="-9.9000000000000000e+01" rms="0.0000000000000000e+00" purity="6.5521043539047241e-01" nType="1"/>
                    <Node pos="r" depth="7" NCoef="0" IVar="14" Cut="6.5377276611328125e+02" cType="1" res="-9.9000000000000000e+01" rms="0.0000000000000000e+00" purity="3.5607564449310303e-01" nType="0">
